{"mlp_extractor.policy_net.0.weight": [[-0.04614651948213577, 0.10153808444738388, -0.10317931324243546, -0.07662668824195862, -0.02755313739180565, 0.33972394466400146, 0.003787785302847624, 0.0036501793656498194, -0.07536156475543976], [0.19546614587306976, 0.09703319519758224, -0.0035371321719139814, -0.37101560831069946, -0.01958020217716694, 0.2948729395866394, -0.027937453240156174, -0.221489816904068, -0.2184055745601654], [0.04702560231089592, 0.06500793993473053, -0.006018937099725008, 0.04706671088933945, 0.13323545455932617, -0.17275270819664001, -0.06155627965927124, -0.19487783312797546, -0.09311172366142273], [0.10191762447357178, 0.18545334041118622, 0.11279584467411041, -0.08767442405223846, 0.01964668184518814, -0.029581664130091667, -0.08632922917604446, -0.18047957122325897, -0.24275679886341095], [0.12590841948986053, 0.020024385303258896, 0.03497832641005516, 0.10330206900835037, 0.08534512668848038, -0.3713315725326538, -0.06958715617656708, -0.05008569732308388, -0.22820977866649628], [-0.00925473403185606, -0.014699826948344707, -0.13474062085151672, 0.16834144294261932, -0.1680183708667755, 0.2885599732398987, 0.01821148581802845, 0.2566778361797333, 0.1649552285671234], [0.15443450212478638, 0.011772125959396362, -0.03250006213784218, -0.16253159940242767, 0.11533038318157196, 0.10136272013187408, -0.06113984063267708, -0.29028090834617615, -0.32710057497024536], [0.02264970913529396, -0.14977198839187622, 0.03582381084561348, 0.13677480816841125, -0.03637012094259262, -0.18986022472381592, 0.0807609111070633, 0.09982519596815109, 0.24205178022384644], [0.031853385269641876, -0.05252315476536751, 0.019190244376659393, 0.027264492586255074, -0.07839395105838776, -0.1453254371881485, 0.04962167888879776, 0.08082898706197739, 0.09869248420000076], [-0.0027601695619523525, 0.15990705788135529, 0.23624855279922485, -0.09344938397407532, 0.015986353158950806, -0.2695997953414917, -0.045770496129989624, -0.1892814189195633, -0.14518621563911438], [-0.14091885089874268, 0.035294074565172195, 0.014345532283186913, -0.22365841269493103, 0.03244559466838837, 0.4229886829853058, -0.07227567583322525, -0.06787465512752533, -0.23119013011455536], [0.05595942214131355, 0.06425932049751282, -0.02940635196864605, 0.04597466066479683, 0.10670166462659836, -0.3343946039676666, -0.03657138720154762, -0.22394436597824097, -0.060092393308877945], [-0.049247004091739655, -0.015915043652057648, -0.09232773631811142, -0.01983032003045082, -0.13368088006973267, 0.3860871195793152, 0.03841507062315941, 0.16815730929374695, 0.06703208386898041], [-0.04289986938238144, -0.0227043554186821, 0.017306223511695862, -0.02407137118279934, 0.016513939946889877, 0.0002388114226050675, 0.004801587667316198, -0.02158668078482151, 0.05466817319393158], [0.1020372211933136, 0.05022035539150238, -0.03832543268799782, 0.04319194704294205, -0.09004596620798111, 0.0008156224503181875, -0.005080764647573233, -0.07110646367073059, 0.023773055523633957], [-0.14904315769672394, -0.1480354368686676, 0.015460342168807983, 0.08736532926559448, -0.034297458827495575, -0.03700960427522659, 0.08807568997144699, 0.18145333230495453, 0.19565212726593018], [0.021712712943553925, -0.020266924053430557, 0.028051139786839485, -0.16896066069602966, -0.11239700764417648, 0.10342331230640411, 0.026505496352910995, 0.05963050574064255, 0.11290282756090164], [-0.06618092209100723, -0.008553000167012215, -0.12008883059024811, 0.2880849540233612, -0.15367981791496277, 0.15747955441474915, 0.0026849363930523396, 0.36550167202949524, 0.14092077314853668], [-0.09538287669420242, 0.0135871646925807, 0.03666778281331062, -0.07936952263116837, -0.06951462477445602, 0.38842445611953735, -0.022806985303759575, -0.14037078619003296, 0.058986738324165344], [0.09843946993350983, 0.03485048934817314, -0.043663185089826584, 0.06001053377985954, -0.015106672421097755, 0.00029202684527263045, -0.0071654776111245155, -0.018138891085982323, -0.040763404220342636], [0.1349058747291565, 0.06984084099531174, 0.050267789512872696, -0.27782055735588074, 0.16487346589565277, -0.3014258146286011, -0.014814946800470352, -0.2442898452281952, -0.16676564514636993], [0.05635640025138855, -0.05667412653565407, -0.020009322091937065, -0.08429937064647675, 0.05424961820244789, -0.021508751437067986, 0.007244961801916361, 0.024236546829342842, 0.06764882802963257], [-0.06605393439531326, 0.040434855967760086, -0.02138645015656948, -0.043945010751485825, 0.1260678470134735, -0.3347043991088867, 0.03150421380996704, -0.044061724096536636, -0.01786746084690094], [0.194378063082695, -0.09115683287382126, 0.012276239693164825, -0.1520356982946396, 0.11762718111276627, -0.33377131819725037, -0.0024123266339302063, -0.12526844441890717, -0.005786641035228968], [0.017794687300920486, 0.002465394325554371, 0.036398306488990784, -0.014346551150083542, -0.02036259137094021, 0.0041684252209961414, 0.0012187088141217828, -0.021788882091641426, 0.03454364463686943], [-0.1028403639793396, 0.031181994825601578, -0.09733092784881592, 0.006449454464018345, 0.03000670298933983, 0.16351158916950226, 0.014986199326813221, 0.1176840141415596, -0.13571970164775848], [-0.07068883627653122, -0.0017009605653584003, -0.011538987047970295, -0.035270486027002335, -0.025262434035539627, 0.3910672068595886, -0.056863002479076385, -0.0954098328948021, 0.013736619614064693], [-0.16343556344509125, 0.05033521726727486, -0.042307592928409576, 0.17193014919757843, 0.062831811606884, -0.0047197286039590836, -0.017294907942414284, 0.019526386633515358, -0.2023647427558899], [0.004349071532487869, -0.02099124900996685, 0.1602088063955307, -0.08955977857112885, 0.0946129858493805, -0.47566792368888855, -0.00018791011825669557, -0.04968470707535744, 0.002658735727891326], [-0.05529559776186943, -0.04320504516363144, -0.022057803347706795, 0.14638769626617432, -0.08419743180274963, 0.33717384934425354, -0.03707225248217583, 0.07779068499803543, 0.0013542865635827184], [-0.06635240465402603, -0.11786902695894241, -0.039830852299928665, 0.14300303161144257, -0.18431416153907776, 0.1262517124414444, 0.11837278306484222, 0.425493985414505, 0.3110305070877075], [0.16190455853939056, 0.1096041351556778, 0.05271463468670845, -0.28001415729522705, 0.11310504376888275, -0.29702118039131165, -0.007173202466219664, -0.10381689667701721, -0.08877882361412048], [0.07656776160001755, 0.019069435074925423, -0.007802373263984919, 0.2426907867193222, -0.04706234484910965, -0.1933078169822693, 0.021331658586859703, 0.012270956300199032, -0.06508398056030273], [0.11887827515602112, -0.014912746846675873, 0.04688584432005882, 0.2049875259399414, -0.035944998264312744, -0.22262193262577057, -0.009524325840175152, -0.06653966754674911, 0.004992849659174681], [-0.06967496871948242, -0.05032656714320183, 0.18817369639873505, 0.1632629781961441, -0.09542806446552277, -0.15075929462909698, 0.054577719420194626, 0.1347624510526657, 0.02778227999806404], [-0.08652158826589584, 0.07565590739250183, -0.003523504361510277, 0.1311686486005783, 0.048309605568647385, 0.03786233440041542, -0.023056816309690475, -0.026813136413693428, -0.1756339967250824], [-0.028056949377059937, -0.03849883750081062, -0.027466969564557076, 0.034981176257133484, 0.0979461520910263, -0.41687190532684326, 0.1050705686211586, -0.06892998516559601, 0.020632928237318993], [0.03719586506485939, 0.06719686090946198, 0.19131684303283691, -0.10142163932323456, 0.14864157140254974, -0.3183237910270691, -0.032338082790374756, -0.2828752398490906, -0.2935275435447693], [0.16128337383270264, 0.06563360244035721, -0.04833377152681351, -0.04377268999814987, 0.03279324620962143, -0.11942247301340103, -0.03847402706742287, -0.1363750845193863, -0.045778993517160416], [0.007197644095867872, 0.02381879650056362, -0.011680037714540958, 0.0834982618689537, 0.018929384648799896, -0.013302184641361237, -0.009386014193296432, -0.05617670714855194, -0.009365227073431015], [-0.02043236792087555, 0.01026014145463705, -0.0395268015563488, -0.1534479558467865, -0.07280778884887695, 0.3522324860095978, 0.03825714439153671, -0.07068634033203125, 0.25947508215904236], [-0.11516063660383224, 0.1114862784743309, -0.04287364333868027, -0.1632414162158966, -0.008898863568902016, 0.4828801453113556, -0.030247116461396217, -0.1433245688676834, -0.06441111862659454], [-0.04307651147246361, -0.03734700754284859, -0.13859258592128754, 0.13701750338077545, -0.11335420608520508, 0.33897170424461365, 0.08697034418582916, 0.12331132590770721, 0.22632665932178497], [-0.007664835546165705, 0.0958075001835823, 0.0016802779864519835, 0.08275483548641205, 0.02101324312388897, -0.42746585607528687, 0.10147250443696976, 0.027653489261865616, 0.011171402409672737], [-0.08968405425548553, 0.047299228608608246, 0.005513873416930437, 0.11114135384559631, -0.0849236398935318, 0.05129837244749069, 0.007795813959091902, -0.021309200674295425, -0.025479838252067566], [0.046189408749341965, 0.03740299493074417, 0.05066005513072014, -0.0020466800779104233, -0.04482195898890495, 0.002979651326313615, -0.006938555743545294, 0.08325514197349548, -0.12310711294412613], [-0.035197313874959946, -0.07820871472358704, -0.02047501690685749, 0.26935458183288574, -0.13725075125694275, -0.11806872487068176, 0.07072485983371735, 0.29193124175071716, 0.3069112300872803], [-0.053418759256601334, -0.015067887492477894, 0.0975252017378807, -0.06622939556837082, -0.005127602256834507, 0.0006791658233851194, 0.004099341109395027, 0.05998583137989044, -0.02198721282184124], [-0.06500259041786194, 0.04395536333322525, -0.1244976744055748, 0.027866918593645096, -0.03713074326515198, 0.12282190471887589, 0.01942475512623787, -0.020949801430106163, 0.012456990778446198], [-0.07876807451248169, 0.06556627154350281, -0.02157977968454361, -0.09437704086303711, -0.048561617732048035, 0.414101779460907, 0.0007285100873559713, -0.06471836566925049, -0.09808317571878433], [0.051662787795066833, 0.189728245139122, 0.12805922329425812, -0.033697742968797684, 0.14785265922546387, -0.1916908174753189, -0.1267586350440979, -0.3778206706047058, -0.247943714261055], [-0.033220499753952026, 0.022935137152671814, -0.05093628540635109, -0.1491759866476059, 0.03560279309749603, 0.4126562774181366, -0.06880676001310349, -0.10085462033748627, -0.05009619519114494], [0.0050459145568311214, 0.031192675232887268, 0.1846861094236374, -0.07364460080862045, -0.12308676540851593, -1.8224069208372384e-05, 0.0016407554503530264, -0.012746828608214855, 0.03841900825500488], [0.07634386420249939, 0.023169416934251785, 0.012364480644464493, -0.09694542735815048, 0.008243237622082233, 0.03253193199634552, -0.015023607760667801, -0.03170187026262283, -0.0019981556106358767], [-0.008320637978613377, -0.09076642990112305, 0.0036087906919419765, 0.06677345931529999, -0.03772078454494476, -0.12221302092075348, 0.05757606774568558, 0.11135533452033997, 0.11800871044397354], [0.13777559995651245, -0.0074338652193546295, 0.05126326531171799, -0.11839812248945236, -0.14516328275203705, 0.005392021499574184, 0.01605411432683468, -0.025841083377599716, 0.14990447461605072], [0.023431940004229546, -0.15111853182315826, -0.22438466548919678, 0.34394076466560364, -0.09030190110206604, -0.0248783640563488, 0.02322135493159294, 0.5200892090797424, 0.19792401790618896], [-0.02398006059229374, -0.005162124056369066, 0.15602171421051025, -0.10484538227319717, -0.06762678921222687, 0.045257702469825745, 0.010861437767744064, 0.059598229825496674, 0.02876647189259529], [-0.12161508202552795, 0.004264787770807743, -0.14277657866477966, 0.25198009610176086, -0.10715381056070328, 0.14507846534252167, 0.1336461454629898, 0.18167491257190704, 0.08248879760503769], [-0.02672426588833332, -0.2166401892900467, -0.031284399330616, 0.15103602409362793, -0.11222144216299057, 0.19250257313251495, 0.04540025815367699, 0.1718825250864029, 0.2905255854129791], [-0.09990239143371582, -0.0199903417378664, -0.029009465128183365, 0.05981928110122681, 0.11735577136278152, -0.01589892990887165, -0.007102948147803545, 0.028062954545021057, -0.0632576197385788], [-0.0035547500010579824, 0.1752001941204071, -0.13845428824424744, -0.1608579456806183, -0.05927123874425888, 0.3987351655960083, 0.042566973716020584, -0.07226923853158951, -0.1095605343580246], [-0.02806893363595009, -0.0763126015663147, -0.01312704011797905, 0.1923268884420395, 0.019832108169794083, -0.37384721636772156, 0.013765465468168259, 0.4197644889354706, 0.04171328991651535], [-0.023455629125237465, 0.14830872416496277, 0.03320268169045448, -0.08558224141597748, -0.06751643866300583, 0.3529296815395355, -0.08011701703071594, -0.305605411529541, -0.16395166516304016], [0.031098203733563423, 0.13570107519626617, 0.10104252398014069, 0.1542382687330246, -0.127736896276474, -0.00832268688827753, -0.01882818527519703, -0.07917772233486176, -0.14734576642513275], [-0.03378184512257576, -0.1541750431060791, -0.02114025317132473, 0.23306986689567566, -0.07019957900047302, 0.17021644115447998, -0.02967362105846405, 0.1442936658859253, -0.023714838549494743], [-0.0642753466963768, 0.12614573538303375, 0.04009775444865227, -0.18249501287937164, -0.01620800420641899, 0.23244984447956085, -0.01968223787844181, -0.11896246671676636, -0.16353601217269897], [0.03220147639513016, -0.17534641921520233, 0.06932314485311508, 0.23995420336723328, -0.04875931143760681, -0.17688758671283722, -0.063796266913414, 0.22078174352645874, 0.34164902567863464], [0.017496705055236816, -0.09672236442565918, 0.035428620874881744, 0.054322950541973114, 0.07789675146341324, -0.3539489805698395, 0.0190571416169405, 0.04391580447554588, 0.10747240483760834], [-0.004430769477039576, -0.004119651857763529, -0.10596942156553268, -0.07127893716096878, -0.05720838904380798, 0.3535221219062805, -0.03662579506635666, 0.24215000867843628, 0.10640105605125427], [0.08877179026603699, 0.08638892322778702, -0.012748871929943562, -0.12648014724254608, -0.03329963982105255, 0.3056582808494568, -0.003163916291669011, -0.2672327160835266, -0.14631180465221405], [0.09559004753828049, 0.04958372190594673, -0.07495750486850739, -0.18030594289302826, -0.007949872873723507, 0.4434035122394562, -0.09430883824825287, -0.09833381325006485, -0.09553232043981552], [-0.06653369963169098, -0.12068350613117218, -0.0965283215045929, 0.03190816193819046, -0.003519897349178791, 0.36312955617904663, -0.04673510044813156, 0.1020980179309845, -0.013817349448800087], [-0.18241877853870392, 0.011349031701683998, -0.07328318804502487, 0.0854894369840622, -0.12516619265079498, 0.3800070583820343, 0.02904014103114605, -0.05850041285157204, 0.2204630970954895], [0.09043743461370468, 0.022432245314121246, -0.05840689688920975, 0.025821857154369354, -0.04712967202067375, 0.0022570451255887747, -0.0016233314527198672, -0.04802364483475685, 0.026883285492658615], [-0.07085505872964859, 0.06055532395839691, -0.14867553114891052, -0.13256977498531342, 0.2293517291545868, 0.2021915167570114, -0.16376085579395294, -0.2750157117843628, -0.22949139773845673], [0.08341322094202042, 0.12217260897159576, -0.040704160928726196, -0.05134883522987366, -0.10317017138004303, 0.22746625542640686, -0.01012754999101162, -0.06531130522489548, -0.051681146025657654], [-0.07670450210571289, -0.0135190449655056, 0.056040506809949875, -0.01465956587344408, 0.01532342005521059, 0.001957028405740857, 0.002107701962813735, -0.014470936730504036, 0.036048773676157], [0.024114521220326424, -0.07374951988458633, 0.0653705969452858, -0.06178906932473183, -0.025019865483045578, 0.09865543991327286, -0.014859161339700222, 0.031246166676282883, 0.07825864106416702], [-0.009206087328493595, -0.02330246940255165, -0.019320033490657806, -0.008865420706570148, 0.02889755181968212, -0.0022847566287964582, 0.004209574311971664, -0.029227621853351593, 0.0503002405166626], [-0.11588937044143677, 0.01914767362177372, -0.05121839419007301, 0.02682662568986416, 0.07033610343933105, 0.0775313749909401, -0.02433018386363983, -0.11347909271717072, 0.019793502986431122], [0.030860958620905876, -0.023835061118006706, 0.05078915134072304, -0.06665454804897308, 0.009450558573007584, -0.0024832820054143667, 0.00590093806385994, 0.038858313113451004, 0.008089995943009853], [-0.09976683557033539, -0.01706020161509514, 0.04239913076162338, 0.20916512608528137, -0.18367478251457214, 0.24061833322048187, 0.07338278740644455, 0.2627461850643158, 0.09517799317836761], [0.04408424720168114, 0.061587125062942505, -0.07912765443325043, 0.1836773008108139, 0.018114857375621796, -0.015115655958652496, -0.01492078136652708, -0.1133938729763031, -0.05517865717411041], [0.07843045145273209, 0.09318266063928604, 0.016563573852181435, -0.2758947014808655, 0.1370091587305069, -0.22414331138134003, -0.038261864334344864, -0.12116412073373795, -0.1037050411105156], [-0.09857683628797531, -0.10430829972028732, -0.025789067149162292, 0.2335042655467987, -0.14002026617527008, 0.28390124440193176, -0.0077155535109341145, 0.07378620654344559, 0.2579001188278198], [-0.09540244936943054, -0.24460840225219727, 0.063972607254982, 0.13876399397850037, -0.11462846398353577, 0.09056403487920761, 0.050796523690223694, 0.2787759602069855, 0.20063740015029907], [-0.001465963781811297, -0.10345444083213806, -0.01900467276573181, -0.17198771238327026, 0.05994194373488426, 0.01418275572359562, 0.017777031287550926, 0.08414826542139053, 0.12438138574361801], [0.05023358389735222, 0.005406226962804794, -0.04786437377333641, 0.07244176417589188, 0.0008229296654462814, -0.11517105996608734, 0.0012340995017439127, -0.006236899644136429, -0.03523557633161545], [0.045171529054641724, 0.1771523505449295, -0.11961553245782852, -0.14638572931289673, -0.11496994644403458, 0.3870561420917511, 0.07263649255037308, -0.12517237663269043, 0.007592410314828157], [0.016595812514424324, -0.1564602255821228, 0.14716394245624542, 0.2805720865726471, -0.01721794158220291, -0.28413742780685425, 0.013788828626275063, 0.2055908590555191, 0.08613092452287674], [0.009770809672772884, 0.0018620180198922753, -0.14660154283046722, 0.058201923966407776, 0.06762750446796417, -0.003065273864194751, -0.0066534290090203285, 0.09520083665847778, -0.15764914453029633], [-0.08173152804374695, 0.13730435073375702, -0.07640257477760315, -0.19467802345752716, 0.005451449193060398, 0.33898672461509705, 0.009965338744223118, -0.20077377557754517, -0.09334205836057663], [-0.05194905772805214, 0.014958257786929607, 0.0008777054026722908, -0.22066639363765717, -0.03163342550396919, 0.3928968608379364, -0.053705159574747086, 0.09826498478651047, -0.15638941526412964], [0.08176911622285843, 0.05782207101583481, -0.05910448357462883, -0.07943107187747955, -0.13876256346702576, 0.39298388361930847, 0.03328274190425873, -0.07920509576797485, -0.055019523948431015], [0.027031106874346733, 0.2517930269241333, -0.0346001498401165, -0.22264961898326874, 0.012685507535934448, 0.06255220621824265, 0.07607297599315643, -0.40582001209259033, -0.2754456400871277], [-0.0339876189827919, -0.1979922503232956, -0.0890117809176445, 0.21140852570533752, -0.09031309187412262, 0.08841732144355774, -0.0018562740879133344, 0.32642585039138794, 0.31389397382736206], [0.019846661016345024, -0.03143472969532013, -0.16464799642562866, -0.06260421872138977, 0.07645636796951294, 0.10984950512647629, -0.0011222081957384944, -0.027139201760292053, 0.06826569885015488], [0.05007556825876236, 0.10521471500396729, -0.010333091020584106, 0.15623588860034943, 0.015629472211003304, 0.014088348485529423, -0.03132618963718414, -0.07628744840621948, -0.1799708902835846], [0.06890517473220825, 0.03380824998021126, 0.14121447503566742, 0.02828671969473362, -0.11631667613983154, -0.3109923303127289, 0.08759496361017227, 0.17309221625328064, -0.04077507182955742], [0.032506104558706284, 0.04320613667368889, -0.11153706908226013, -0.1442471295595169, -0.0077735562808811665, 0.43001580238342285, -1.4300088878371753e-05, -0.11076132208108902, -0.10637112706899643], [0.02544792741537094, 0.07390812039375305, -0.04003037139773369, -0.10405980795621872, 0.012931899167597294, 0.08582272380590439, -0.028610311448574066, -0.10140949487686157, -0.029137736186385155], [0.029721872881054878, 0.012400995008647442, 0.1340527981519699, 0.06819409877061844, 0.06946951150894165, -0.4535655379295349, 0.011135438457131386, -0.0014847100246697664, -0.04195553809404373], [0.008655852638185024, -0.04344266653060913, -0.007691120728850365, 0.1828300654888153, -0.15011504292488098, 0.18633829057216644, -0.03834572434425354, 0.22349676489830017, 0.21298322081565857], [0.09844289720058441, 0.05321267992258072, 0.0010986237321048975, -0.014137190766632557, -0.0683581754565239, 0.061689428985118866, -0.0044981492683291435, -0.05132799223065376, 0.009063647128641605], [0.049057621508836746, 0.011148733086884022, -0.054378848522901535, 0.06779658794403076, 0.016952170059084892, -0.003253102069720626, -0.004285622388124466, -0.07291687279939651, 0.04137909412384033], [0.04542013257741928, -0.0158547330647707, 0.1496555507183075, 0.04569237306714058, -0.02154001034796238, -0.23651283979415894, -0.0002839615335687995, 0.08749550580978394, -0.09909369051456451], [-0.06479381769895554, -0.06396462023258209, 0.01871330663561821, -0.07371731102466583, 0.0659087747335434, -0.012641854584217072, 0.00858711265027523, 0.030649183318018913, 0.06603053212165833], [0.052202172577381134, -0.04899721220135689, -0.07976264506578445, -0.08117810636758804, 0.019428003579378128, 3.987121817772277e-05, 0.011294404044747353, 0.01991262473165989, 0.0743335410952568], [-0.0818682387471199, 0.025059184059500694, 0.0230952687561512, -0.2010151743888855, 0.17845343053340912, 0.03251396492123604, 0.1409224420785904, -0.4721408784389496, -0.2559613287448883], [-0.017045926302671432, 0.09743979573249817, 0.17258550226688385, 0.1277325600385666, -0.0849069282412529, -0.0008709644316695631, -0.01387404277920723, -0.1191178411245346, -0.03585580736398697], [-0.04597635567188263, 0.03193323686718941, 0.06415976583957672, 0.09022288024425507, 0.02981274202466011, 0.0018270722357556224, -0.010760231874883175, -0.014643014408648014, -0.0692644864320755], [0.04390673711895943, -0.05269278958439827, 0.08642471581697464, -0.08308374881744385, -0.1546243280172348, 0.4724672734737396, -0.10127212852239609, 0.02937408909201622, -0.028876647353172302], [0.06715182960033417, 0.04317009076476097, -0.054475829005241394, -0.26451626420021057, 0.01938452199101448, 0.3010057508945465, -0.00384306232444942, -0.151694193482399, -0.20174726843833923], [-0.08626872301101685, -0.035796742886304855, 0.07175342738628387, 0.03889448940753937, 0.042366981506347656, -0.22647206485271454, 0.02198648266494274, 0.04821157827973366, 0.0007063981029205024], [-0.07908577471971512, -0.10283823311328888, -0.1319115161895752, 0.03393201529979706, -0.03144297003746033, 0.384047269821167, -0.0015304986154660583, 0.13343389332294464, 0.15984949469566345], [-0.011809749528765678, -0.11705873906612396, -0.08770374953746796, 0.2304839938879013, -0.01867392472922802, -0.2829517424106598, 0.09067311137914658, 0.30502641201019287, 0.20521537959575653], [-0.003193657146766782, 0.057590510696172714, -0.07610329985618591, -0.08162418752908707, -0.12581400573253632, 0.42425620555877686, 0.0501805879175663, 0.11962071806192398, 0.08586181700229645], [-0.06741931289434433, -0.034157127141952515, 0.005094620864838362, -0.024693356826901436, 0.0643458142876625, -0.001310775987803936, 0.0034413905814290047, 0.049706846475601196, -0.024993930011987686], [0.21857133507728577, -0.026357125490903854, 0.08147332817316055, 0.1626911461353302, -0.08405370265245438, -0.4006502330303192, 0.05876751244068146, 0.09982763975858688, -0.025796514004468918], [-0.1260952204465866, -0.10479233413934708, -0.13182953000068665, 0.34754621982574463, -0.09172705560922623, 0.1183459684252739, 0.009420694783329964, 0.27578821778297424, 0.33946850895881653], [-0.09208135306835175, -0.04728420078754425, -0.0693054348230362, 0.15869911015033722, -0.16027279198169708, 0.26770323514938354, 0.12247353792190552, 0.30842727422714233, 0.10711577534675598], [0.1286156177520752, 0.012868485413491726, 0.09999923408031464, 0.22451308369636536, -0.010291368700563908, -0.4758955240249634, -0.010946636088192463, 0.010850545018911362, -0.02872752957046032], [0.006840646266937256, 0.005665805656462908, 0.0018018489936366677, 0.023375051096081734, -0.008028101176023483, 0.0004932516603730619, -0.0014364628586918116, -0.04950055852532387, 0.044185664504766464], [-0.047215819358825684, -0.09892410039901733, 0.05499420315027237, 0.0016043295618146658, -0.14056560397148132, 0.2395944595336914, 0.07953575998544693, 0.2017478495836258, 0.19028520584106445], [0.009508264251053333, 0.16084083914756775, -0.08655174821615219, -0.36729493737220764, 0.19160300493240356, 0.01987856812775135, -0.01674726977944374, -0.31004446744918823, -0.21793241798877716], [0.06808479875326157, 0.09805788099765778, -0.00708974152803421, -0.13193927705287933, 0.06277666985988617, -0.03383397310972214, -0.05062235891819, -0.1299554407596588, -0.10184905678033829], [-0.11643004417419434, -0.12811531126499176, -0.07042321562767029, 0.2142220437526703, -0.11883576959371567, 0.09633933007717133, 0.06896479427814484, 0.33312782645225525, 0.34235531091690063], [0.0126824751496315, -0.0014517599483951926, 0.06042027845978737, 0.017826801165938377, 0.05794403329491615, -0.4527184069156647, 0.0819968432188034, 0.11278681457042694, 0.0019506214885041118], [-0.04277719929814339, 0.015889855101704597, -0.032582513988018036, 0.17407633364200592, -0.19404590129852295, 0.13160759210586548, 0.08154507726430893, 0.11030881106853485, 0.07163120061159134], [-0.08658663183450699, 0.020312532782554626, 0.0823327824473381, -0.13383366167545319, 0.13064298033714294, -0.03181717172265053, -0.025476813316345215, -0.24126403033733368, -0.18272827565670013], [0.10326334089040756, -0.07586223632097244, -0.005912569351494312, -0.17291834950447083, 0.017334632575511932, -0.0015288214199244976, 0.015283474698662758, 0.09142358601093292, 0.08489226549863815], [0.10788175463676453, -0.1063956767320633, 0.11799260228872299, -0.11039762943983078, 0.1830163151025772, -0.4053575098514557, -0.07280761003494263, -0.12406434863805771, -0.036434318870306015], [-0.08411073684692383, -0.02221641130745411, -0.0009336875518783927, 0.03990153968334198, 0.06196075677871704, 0.0017063312698155642, 0.0005636883433908224, -0.05988829582929611, 0.06822612881660461], [0.0019131042063236237, -0.01285366527736187, -0.06395196914672852, 0.036808039993047714, 0.04706581309437752, 0.0022663890849798918, -0.00041769599192775786, -0.027840010821819305, 0.021445242688059807], [-0.09088301658630371, -0.14292918145656586, -0.005101925693452358, -0.21134743094444275, 0.08883154392242432, 0.009724223054945469, 0.022776324301958084, 0.09980140626430511, 0.17574144899845123], [-0.2043835073709488, -0.04080410674214363, -0.07871589809656143, 0.007458008825778961, -0.03303062170743942, 0.34755659103393555, 0.03552638739347458, 0.19441303610801697, 0.1379837542772293], [0.03345530107617378, 0.05716034397482872, 0.022224273532629013, 0.14841091632843018, 0.03782770410180092, -0.045726679265499115, -0.018095077946782112, -0.02999248169362545, -0.13918913900852203], [0.05111898481845856, -0.12299805134534836, -0.009688771329820156, 0.21998465061187744, -0.016615476459264755, -0.2062564194202423, 0.020103273913264275, 0.22352254390716553, 0.17498968541622162], [-0.11304506659507751, -0.10544335097074509, 0.14234872162342072, 0.2182878851890564, 0.005142917390912771, -0.3962464928627014, -0.005666039418429136, 0.12575531005859375, 0.26254767179489136], [-0.07029689103364944, 0.013730400241911411, -0.11954044550657272, -0.10169906914234161, -0.10927953571081161, 0.35181722044944763, 0.08886170387268066, 0.09494269639253616, 0.2545284926891327], [0.044331591576337814, 0.11941070854663849, 0.0003273261827416718, -0.004769683349877596, 0.09529848396778107, -0.3465297818183899, -0.007717120461165905, -0.1732064038515091, -0.258089542388916], [0.07875068485736847, -0.020060086622834206, 0.12861986458301544, -0.15362566709518433, 0.09643178433179855, -0.3250352740287781, -0.09156199544668198, -0.12936517596244812, -0.08073357492685318], [0.26519471406936646, -0.03953114151954651, 0.08200881630182266, -0.013361790217459202, 0.1044069156050682, -0.385147362947464, -0.11269532144069672, -0.086700938642025, -0.15516264736652374], [0.11822207272052765, -0.034093450754880905, 0.03050651028752327, -0.15254265069961548, -0.05730387568473816, 0.061171527951955795, 0.009975000284612179, -0.012674345634877682, 0.15206514298915863], [0.09998345375061035, -0.00621585501357913, -0.040529631078243256, -0.02304406650364399, -0.0032000227365642786, -0.003350889077410102, 0.002448584418743849, 0.018118539825081825, -0.018025051802396774], [0.03090912103652954, -0.11324135214090347, 0.018703723326325417, 0.09574855118989944, -0.04258076101541519, -0.06814554333686829, -0.015094367787241936, 0.1275022178888321, -0.03283793851733208], [0.05378860980272293, 0.027796119451522827, 0.008977700024843216, -0.00041309703374281526, -0.053501348942518234, -0.03503710776567459, -0.005916140042245388, 0.01808730699121952, -0.062307216227054596], [-0.06905203312635422, -0.09879492223262787, -0.0895499587059021, 0.057789772748947144, -0.10140148550271988, 0.5769575238227844, -0.03382416442036629, 0.05802463740110397, 0.03627663478255272], [-0.06930599361658096, -0.22284512221813202, 0.21400167047977448, 0.17667151987552643, 0.03397269546985626, -0.3425079584121704, -0.06592363119125366, 0.0757395401597023, 0.025550980120897293], [-0.05773273855447769, -0.08310816437005997, -0.022308308631181717, -0.09841223806142807, 0.07235889136791229, 0.006835958920419216, 0.013672471977770329, 0.013869511894881725, 0.13374388217926025], [0.07741014659404755, -0.042389120906591415, -0.06761260330677032, 0.08328460156917572, -0.1476457566022873, 0.3885917663574219, -0.0033909487538039684, 0.11767145246267319, 0.025252602994441986], [0.02122250199317932, -0.00207186839543283, -0.01570221409201622, -0.05165394768118858, -0.022834716364741325, 0.16735747456550598, -0.04659073427319527, -0.006942437961697578, -0.05582288280129433], [-0.07268856465816498, -0.021044164896011353, 0.027977406978607178, -0.05927729606628418, -0.007223683875054121, -0.0015603553038090467, 0.005112023558467627, 0.04258444905281067, -0.005269029177725315], [-0.102652408182621, -0.06000339612364769, -0.013434281572699547, 0.18695572018623352, -0.13883048295974731, 0.12613633275032043, -0.02023492008447647, 0.39403435587882996, 0.2604704797267914], [-0.08412376046180725, -0.08652840554714203, -0.1521652787923813, 0.11662540584802628, -0.015545936301350594, 0.3600800633430481, 0.024334274232387543, 0.25899508595466614, 0.03743443638086319], [0.009914576075971127, -0.06624491512775421, 0.004120357800275087, -0.15450656414031982, 0.00867154635488987, -0.00728193111717701, 0.013523150235414505, 0.12039389461278915, 0.02798965387046337], [0.004280430730432272, 0.09058573842048645, 0.013333043083548546, -0.03592769429087639, 0.06163850054144859, -0.03920457139611244, -0.06273955851793289, -0.19120709598064423, -0.07694610208272934], [0.11958859860897064, 0.0953892171382904, 0.024558911100029945, -0.14871497452259064, 0.06411112844944, -0.28081947565078735, 4.547436401480809e-05, -0.08664727210998535, -0.08363856375217438], [-0.14891421794891357, 0.03569132462143898, -0.029142383486032486, 0.14911487698554993, -0.13894324004650116, 0.27925246953964233, -0.06321841478347778, 0.32216912508010864, 0.11825071275234222], [0.032920531928539276, 0.1335497498512268, 0.019227469339966774, -0.10558437556028366, 0.07530642300844193, -0.3478532135486603, 0.02795582078397274, -0.22911164164543152, -0.11199390888214111], [-0.036250729113817215, -0.07078453153371811, -0.14935438334941864, 0.20518404245376587, -0.07169830799102783, 0.2578195631504059, 0.06507363170385361, 0.21427854895591736, 0.09474825114011765], [-0.05330076813697815, 0.07899343222379684, 0.18662118911743164, -0.17440727353096008, 0.15466278791427612, -0.17186219990253448, -0.09196401387453079, -0.31060314178466797, -0.1726548969745636], [-0.061911068856716156, -0.05470053851604462, 0.11073295772075653, 0.11465858668088913, -0.011373868212103844, -0.32488781213760376, 0.07464239746332169, 0.22121268510818481, -0.03850451484322548], [-0.035910237580537796, 0.045871276408433914, 0.026551032438874245, -0.14530357718467712, -0.05411294102668762, 0.4517352283000946, 0.042942456901073456, -0.3380601108074188, -0.1108052134513855], [-0.11459052562713623, 0.08522986620664597, 0.02858208492398262, 0.10806308686733246, -0.0837252214550972, 0.1406986117362976, -0.014325598254799843, -0.038188278675079346, -0.0978979542851448], [-0.04711281508207321, -0.02208121493458748, 0.08251724392175674, -0.051830440759658813, 0.004914028570055962, 0.0007856327574700117, 0.005392600316554308, 0.004123171325773001, 0.043174032121896744], [-0.022489672526717186, -0.04309374466538429, -0.07834777981042862, 0.2940424084663391, -0.18109306693077087, 0.0828094407916069, -0.0061528487130999565, 0.34567931294441223, 0.3107098639011383], [-0.18616940081119537, -0.02792038582265377, -0.021380485966801643, -0.012024933472275734, -0.045391857624053955, 0.410807341337204, -0.009634592570364475, -0.01031964085996151, 0.07537513971328735], [0.011312667280435562, 0.08580861985683441, 0.05241542309522629, -0.10078109055757523, -0.13325534760951996, 0.44536006450653076, -0.0633552074432373, -0.1546505242586136, -0.026899896562099457], [0.012766752392053604, -0.12094531208276749, -0.008935640566051006, 0.1909828931093216, -0.024827247485518456, 0.15235696732997894, -0.07748201489448547, 0.06527864187955856, -0.09783366322517395], [0.017635634168982506, 0.028088578954339027, -0.1783697009086609, -0.24995462596416473, 0.08519971370697021, 0.41583678126335144, -0.06383194029331207, -0.2125953733921051, -0.09302736073732376], [-0.06089046970009804, 0.02583443373441696, -0.057103365659713745, 0.12079227715730667, -0.15595796704292297, 0.3293391764163971, 0.011671814136207104, 0.11090286076068878, 0.12041029334068298], [0.018267812207341194, 0.012673439458012581, -0.09914635121822357, -0.0001555943745188415, -0.11109094321727753, 0.4663328230381012, 0.0021501074079424143, -0.03230082243680954, -0.023884911090135574], [-0.1003497987985611, 0.14148364961147308, -0.037596266716718674, -0.13230541348457336, -0.034154247492551804, 0.33461883664131165, -0.00041702750604599714, -0.12403855472803116, -0.1393769234418869], [-0.1258683204650879, -0.17349520325660706, -0.12061748653650284, 0.2991820275783539, -0.06676428020000458, -0.10330680757761002, 0.018421897664666176, 0.5622302889823914, 0.23898042738437653], [-0.03904760628938675, 0.022581027820706367, 0.03262953460216522, -0.1280497908592224, 0.28766047954559326, -0.4237075448036194, -0.02672002837061882, -0.1912170946598053, -0.18537993729114532], [-0.06744187325239182, 0.03558332845568657, -0.14325551688671112, 0.032341282814741135, -0.06571754813194275, 0.40140292048454285, -0.010666219517588615, 0.04285696893930435, 0.14385487139225006], [-0.04351584240794182, -0.11809124797582626, 0.010263754054903984, 0.05681300163269043, -0.024759609252214432, -0.09621793776750565, 0.046640727669000626, 0.09465698152780533, 0.15162047743797302], [-0.037704143673181534, 0.08312670141458511, 0.023609625175595284, -0.1561732143163681, 0.14284595847129822, -0.2336307018995285, 0.07677783817052841, -0.39557912945747375, -0.16113151609897614], [0.0508519671857357, -0.020101167261600494, 0.11144126951694489, -0.11902295798063278, 0.08533141762018204, -0.4602418541908264, 0.0617331899702549, -0.023394564166665077, -0.00879191979765892], [0.012419084087014198, -0.05773971602320671, 0.019897008314728737, 0.16151930391788483, 0.15412083268165588, -0.43430253863334656, -0.04861210286617279, -0.06924968212842941, -0.04055296629667282], [0.0036785986740142107, -0.2784239947795868, -0.05685499683022499, 0.2616375982761383, -0.14477895200252533, 0.2227940410375595, -0.026113776490092278, 0.3253539800643921, 0.2624239921569824], [0.09879405051469803, 0.1717059314250946, -0.007885098457336426, 0.006917587015777826, -0.014498044736683369, -0.21598155796527863, 0.03476748242974281, -0.07704292237758636, -0.1070174127817154], [0.049534667283296585, -0.22503580152988434, 0.04330802708864212, 0.0914657860994339, 0.02862677536904812, -0.03645085170865059, -0.021235086023807526, 0.19442562758922577, 0.026117222383618355], [0.053629159927368164, 0.08723560720682144, -0.03955955430865288, 0.12983836233615875, -0.07838594913482666, -0.010081897489726543, -0.0024387554731220007, -0.0858062282204628, -0.049854978919029236], [0.06332488358020782, 0.0012021433794870973, 0.02288631722331047, -0.0535261370241642, -0.012731828726828098, -0.07995357364416122, -0.004479940980672836, 0.028662675991654396, -0.03670099005103111], [-0.1155703067779541, 0.10344720631837845, 0.02416849136352539, -0.2807667553424835, -0.02606520615518093, 0.4091239869594574, 0.0140624288469553, -0.10261817276477814, -0.14590004086494446], [-0.11050497740507126, 0.06156295910477638, 0.11082278937101364, 0.08166312426328659, 0.03214038908481598, 0.0009846595348790288, -0.02032713033258915, -0.01141256745904684, -0.1425733119249344], [-0.1154797151684761, 0.06361665576696396, 0.03788994625210762, 0.12406481057405472, -0.03175421059131622, -0.00018760262173600495, -0.013191654346883297, -0.05324820429086685, -0.08299338817596436], [0.01573970541357994, 0.11234018951654434, 0.054024506360292435, 0.18563026189804077, -0.06165369227528572, -0.005910923704504967, -0.018255172297358513, -0.10637004673480988, -0.11267299205064774], [0.07823409885168076, 0.14080078899860382, -0.10026665031909943, -0.18866492807865143, 0.014765690080821514, 0.25948184728622437, -0.09378820657730103, -0.1797291338443756, -0.16196578741073608], [0.17732495069503784, -0.015942640602588654, -0.05940888077020645, 0.04079047963023186, -0.016084076836705208, -0.1281352937221527, 0.015898942947387695, 0.009803294204175472, 0.024809474125504494], [0.06458544731140137, 0.045122988522052765, 0.1107112467288971, -0.1397707611322403, 0.12691257894039154, -0.24079708755016327, 0.026887860149145126, -0.254188597202301, -0.3270583152770996], [0.05107298865914345, 0.0056860498152673244, 0.06248203292489052, -0.06091480702161789, 0.16680435836315155, -0.1534453183412552, -0.07438642531633377, -0.12223003059625626, -0.09293077886104584], [0.12726560235023499, 0.06095190718770027, 0.03338499739766121, -0.19542714953422546, 0.1127496063709259, 0.03373384848237038, -0.07618015259504318, -0.3906781077384949, -0.1490757167339325], [-0.04496988654136658, 0.07563803344964981, 0.0026769430842250586, -0.026257170364260674, -0.0020826770924031734, 0.17356884479522705, -0.004057386890053749, -0.021905601024627686, -0.06305266916751862], [-0.12773843109607697, 0.29792675375938416, -0.07007342576980591, -0.29064056277275085, 0.0873928815126419, 0.15849211812019348, 0.049096379429101944, -0.32851698994636536, -0.17489129304885864], [0.027938514947891235, 0.0627451092004776, 0.10327105969190598, -0.005200969986617565, -0.1294645369052887, 0.011165827512741089, -0.004491383675485849, 0.0007343809120357037, -0.037112265825271606], [-0.10035362094640732, 0.1036604717373848, -0.06476150453090668, -0.19658303260803223, 0.014162616804242134, 0.35584697127342224, -0.02870350517332554, -0.011142781935632229, -0.2214641571044922], [-0.07207448035478592, -0.15343749523162842, -0.03776858001947403, -0.19384703040122986, 0.11214414238929749, -0.002431322354823351, 0.02396392822265625, 0.07879272848367691, 0.201870858669281], [0.07452872395515442, 0.0016426347428932786, -0.025433747097849846, 0.008635064586997032, -0.004110822919756174, -0.06979640573263168, -0.0038148013409227133, 0.06081213057041168, -0.0913916826248169], [0.002015207428485155, 0.010091360658407211, 0.03946573659777641, -0.03287642076611519, -0.020044634118676186, -0.0002872791956178844, -0.00036601413739845157, 0.07348870486021042, -0.07606775313615799], [0.04608110710978508, 0.0946546420454979, 0.1652987003326416, -0.10386372357606888, 0.0899403989315033, -0.2599995732307434, -0.05467677861452103, -0.2894584536552429, -0.211633563041687], [0.06773199886083603, -0.03142677992582321, 0.03160429745912552, -0.0892244353890419, -0.03515435382723808, 0.001776662189513445, 0.011711550876498222, -0.06206793338060379, 0.16947244107723236], [0.04849899187684059, 0.17865422368049622, -0.008112777955830097, -0.3533761203289032, 0.06970655918121338, 0.28587135672569275, 2.965248768305173e-06, -0.3398839235305786, -0.3170115649700165], [-0.040217891335487366, -0.010461259633302689, -0.06794977188110352, -0.10849074274301529, -0.09291649609804153, 0.46174201369285583, -0.011808626353740692, -0.02279232069849968, 0.02026020549237728], [-0.1494630128145218, -0.04975646734237671, 0.07237794995307922, -0.0795421153306961, 0.07479893416166306, 0.06451034545898438, 0.007830784656107426, 0.03440890833735466, 0.06078444793820381], [-0.11635275185108185, -0.10351060330867767, 0.08202077448368073, -0.18029101192951202, 0.045822951942682266, 0.006197596900165081, 0.017689023166894913, 0.05533609166741371, 0.16506405174732208], [-0.01648981124162674, -0.04612348973751068, -0.03480249643325806, 0.17649482190608978, -0.14573262631893158, 0.21116170287132263, 0.06804200261831284, 0.200892835855484, 0.12972742319107056], [-0.08109249174594879, -0.07414199411869049, 0.006521317642182112, -0.028333891183137894, -0.029646262526512146, 0.23402409255504608, 0.02571646310389042, 0.1997002363204956, -0.007331884000450373], [-0.03258782625198364, -0.1317988783121109, -0.06620743125677109, 0.13534143567085266, -0.3006032705307007, 0.29556435346603394, 0.12689241766929626, 0.33324915170669556, 0.38657304644584656], [-0.043659042567014694, 0.05497662350535393, -0.10913704335689545, 0.17585182189941406, 0.042417868971824646, 0.029121465981006622, -0.01473839208483696, -0.0873861238360405, -0.0786045640707016], [0.007346556521952152, 0.040626056492328644, 0.1385650932788849, -0.01186346635222435, -0.09019796550273895, 0.00591196259483695, -0.002841829089447856, -0.0337725505232811, 0.026993853971362114], [0.014689620584249496, 0.013750829733908176, -0.24219024181365967, 0.15958595275878906, 0.11348795890808105, -0.018748454749584198, -0.013523357920348644, 0.025907987728714943, -0.16947534680366516], [0.05610349029302597, 0.04863309487700462, 0.10910104960203171, 0.0019741456490010023, -0.11889448761940002, -0.012355255894362926, -0.012024045921862125, 0.0488886833190918, -0.10638024657964706], [-0.07897811383008957, -0.07872509211301804, 0.07219234853982925, 0.08189556002616882, -0.10117806494235992, 0.4778555631637573, -0.1254112869501114, 0.03109249472618103, -0.05762629210948944], [-0.09559792280197144, -0.006396598182618618, 0.056901585310697556, -0.006427400279790163, -0.016994543373584747, 0.001884423429146409, 0.002197729656472802, -0.06425532698631287, 0.08933062106370926], [0.05223127454519272, 0.0689532682299614, 0.17247550189495087, -0.17264798283576965, 0.07713165134191513, -0.4135485887527466, 0.06103764846920967, -0.23490546643733978, -0.2010282725095749], [-0.06803173571825027, -0.10749522596597672, -0.00690984632819891, -0.02909952588379383, -0.16278564929962158, 0.4441445767879486, 0.037244345992803574, 0.1541077047586441, 0.13750232756137848], [-0.048734087496995926, -0.03191803768277168, -0.11571662127971649, 0.12042100727558136, -0.10441023856401443, 0.3363789916038513, -0.007492497097700834, 0.20403172075748444, 0.18496006727218628], [-0.029228761792182922, -0.003475319128483534, 0.014096632599830627, 0.1781558245420456, -0.17835041880607605, 0.3420761823654175, -0.04439269006252289, 0.10284557193517685, 0.11145446449518204], [-0.05067219212651253, 0.09133820235729218, -0.06454569101333618, -0.09331699460744858, -0.006132450420409441, 0.33188489079475403, -0.010275334119796753, -0.1745389997959137, -0.2001558393239975], [0.09278059005737305, -0.01938948780298233, 0.19578267633914948, 0.1537342220544815, 0.021208135411143303, -0.41566333174705505, 0.0030799084343016148, 0.01899150013923645, -0.06877831369638443], [0.004384493920952082, -0.08037056028842926, 0.04063604772090912, 0.17535656690597534, -0.005881200544536114, -0.3836703896522522, 0.07472414523363113, 0.2529636025428772, 0.013028418645262718], [0.12936018407344818, 0.2566780745983124, -0.03561464697122574, -0.2669518291950226, 0.008565281517803669, 0.1550445705652237, -0.023514650762081146, -0.38519617915153503, -0.21787330508232117], [-0.05718335509300232, -0.02670617215335369, -0.07845639437437057, -0.0531596913933754, -0.02658206596970558, 0.05222291126847267, 0.012249945662915707, 0.011129251681268215, 0.07084877043962479], [-0.0145507687702775, -0.02536940388381481, 0.041031792759895325, -0.01694786176085472, 0.05431201681494713, -0.003592628985643387, 0.0022647420410066843, 0.008123965002596378, 0.013992034830152988], [-0.011625433340668678, 0.08312470465898514, 0.23178167641162872, -0.2003285139799118, 0.09659887105226517, -0.1506042629480362, 0.02496320940554142, -0.4213797450065613, -0.2790352702140808], [0.007654949557036161, -0.041757263243198395, 0.11778393387794495, 0.08853040635585785, 0.044062525033950806, -0.37730643153190613, 0.0272142942994833, 0.03494713082909584, 0.01811722293496132], [0.004208084661513567, 0.0011279162717983127, -0.09164047986268997, 0.15689079463481903, 0.09759589284658432, -0.13307739794254303, -0.011477869935333729, -0.08849745243787766, -0.021298810839653015], [-0.04987422376871109, 0.09915798902511597, -0.04015381261706352, -0.05314582958817482, -0.06428379565477371, 0.4076898992061615, -0.011843719519674778, -0.144545316696167, -0.06008179858326912], [-0.047037605196237564, -0.08273304253816605, 0.06658075004816055, 0.04567017778754234, 0.14348679780960083, -0.4232693016529083, -0.00845770351588726, -0.1158079281449318, 0.02875235117971897], [0.05699031054973602, -0.014379911124706268, 0.013065305538475513, -0.08833934366703033, 0.06176207587122917, -0.3609537184238434, 0.0733950063586235, 0.20842735469341278, -0.08101219683885574], [0.021721091121435165, 0.1408868283033371, -0.016949113458395004, -0.3329309821128845, 0.18322746455669403, -0.036236848682165146, 0.09100504219532013, -0.36023491621017456, -0.2694737911224365], [0.20840944349765778, 0.06074269115924835, 0.11337686330080032, -0.2839858829975128, -0.0006130315596237779, 0.13154536485671997, -0.04021225869655609, -0.4335925579071045, -0.1758241504430771], [0.055523764342069626, -0.12007619440555573, 0.18587476015090942, 0.031070349738001823, 0.019737884402275085, -0.3852498233318329, -0.0009624240337871015, 0.1618339568376541, 0.05887845531105995], [0.028826946392655373, 0.020217562094330788, 0.011296791024506092, 0.05184537544846535, 0.019032351672649384, 0.0021036569960415363, -0.00656132772564888, 0.00016522957594133914, -0.04070437699556351], [0.11473862826824188, -0.04983333498239517, -0.047562096267938614, -0.07699868083000183, 0.170811265707016, -0.30235767364501953, -0.057430531829595566, -0.11899574846029282, -0.0660625547170639], [-0.0004234125663060695, 0.13063481450080872, 0.1652066856622696, -0.26372191309928894, -0.09593415260314941, 0.36603495478630066, -0.06054788455367088, -0.13749755918979645, -0.20009739696979523], [-0.20174051821231842, -0.11065526306629181, 0.06867749989032745, 0.11265463382005692, 0.13150891661643982, -0.3575434684753418, 0.09450385719537735, 0.06848941743373871, 0.18426257371902466], [0.019976070150732994, 0.03503025695681572, 0.025226406753063202, 0.03237805515527725, -0.019818399101495743, 0.0010184200946241617, -0.008383125998079777, 0.049965474754571915, -0.10629059374332428], [-0.05851079523563385, -0.03725383058190346, -0.16772741079330444, 0.09533396363258362, -0.04530517756938934, 0.38609325885772705, -0.007520939223468304, 0.06679373234510422, 0.0027166856452822685], [-0.03663979470729828, -0.04312066361308098, -0.016432838514447212, -0.051986631006002426, 0.051660921424627304, -0.002899025334045291, 0.006659392733126879, 0.048591069877147675, 0.0021606895606964827], [0.03950178250670433, -0.12229656428098679, 0.024479471147060394, 0.111948661506176, 0.08156760036945343, -0.5311443209648132, 0.053404465317726135, 0.17466486990451813, 0.03272700682282448], [-0.008210860192775726, 0.11806891858577728, 0.09708244353532791, -0.06077229604125023, 0.06777723133563995, -0.1920139491558075, 0.03570552542805672, -0.34372031688690186, -0.25693240761756897], [-0.03232595697045326, 0.10572047531604767, 0.0975201204419136, -0.2278086245059967, 0.08842786401510239, 0.08125517517328262, -0.009239318780601025, -0.50257408618927, -0.25614622235298157], [-0.03167463839054108, 0.010851368308067322, 0.0655534490942955, 0.025143645703792572, -2.5690758775454015e-05, 0.004099610261619091, -0.002056763507425785, -0.04608497768640518, 0.04408430680632591], [0.023018427193164825, -0.09020594507455826, 0.1305627077817917, 0.14276646077632904, 0.0572221614420414, -0.3882697820663452, 0.009868175722658634, -0.027880942448973656, 0.14320023357868195], [0.135403111577034, -0.04776763170957565, -0.014780839905142784, -0.22249281406402588, -0.08710719645023346, 0.3721047341823578, -0.03861534222960472, -0.016727235168218613, 0.1331263929605484], [-0.03431159257888794, -0.026569170877337456, -0.0061550447717309, 0.11192992329597473, -0.05817866325378418, 0.2679726481437683, -0.014786769635975361, 0.07792490720748901, -0.05417577922344208], [-0.04168715327978134, 0.007931891828775406, 0.07729831337928772, 0.1757563352584839, 0.11839209496974945, -0.35195380449295044, -0.03701592981815338, -0.09195338189601898, -0.12145217508077621], [0.03538522869348526, -0.0012926880735903978, -0.04700220376253128, -0.013330805115401745, -0.014693471603095531, -0.005369824822992086, 0.001488900976255536, 0.0020350937265902758, -0.00480690598487854], [-0.007458983454853296, -0.15478336811065674, 0.09623970091342926, 0.20151212811470032, -0.16021950542926788, -0.07284153252840042, 0.08844686299562454, 0.3444015383720398, 0.2817123532295227], [-0.07117868214845657, -0.03949327394366264, -0.09299396723508835, -0.06455191224813461, 0.004901692271232605, 0.37240275740623474, -0.0077884928323328495, 0.11786740273237228, -0.025614457204937935], [-0.12466117739677429, -0.05981431528925896, 0.17147323489189148, -0.16690829396247864, 0.007667638827115297, 0.006356582511216402, 0.012286625802516937, 0.1152486801147461, 0.035654954612255096], [-0.05912396311759949, -0.07258795201778412, -0.01469793263822794, 0.1469145119190216, -0.05730532482266426, -0.268458753824234, 0.09903357923030853, 0.36545929312705994, 0.18772532045841217], [-0.09200800210237503, 0.010641118511557579, 0.03867163136601448, 0.020796040073037148, -0.012241796590387821, 0.002898982958868146, -0.0024763874243944883, -0.026191534474492073, 0.024782367050647736], [-0.11581934243440628, -0.02579961158335209, -0.02481895498931408, 0.184703066945076, -0.1857873499393463, 0.21554869413375854, 0.09420198202133179, 0.21768321096897125, 0.24855965375900269], [-0.1495206505060196, 0.04840733855962753, -0.15133515000343323, -0.09724796563386917, 0.038776006549596786, 0.4305277168750763, -0.06541550904512405, -0.15309907495975494, -0.06149761378765106], [0.027775755152106285, -0.07096970826387405, 0.036806512624025345, 0.42013484239578247, -0.08334214240312576, -0.42366817593574524, -0.059421245008707047, 0.2176353931427002, 0.2298070341348648], [-0.030197015032172203, -0.14367732405662537, -0.023131217807531357, 0.24688850343227386, -0.11083628982305527, -0.15077349543571472, 0.041066937148571014, 0.4556620717048645, 0.27372705936431885], [0.05990896001458168, -0.02655501291155815, 0.15040762722492218, -0.30852678418159485, 0.2096601128578186, -0.15786002576351166, 0.16099491715431213, -0.46417421102523804, -0.24282969534397125], [-0.05064363777637482, 0.05148818716406822, 0.09096281230449677, -0.2982010245323181, 0.07843479514122009, 0.1746276170015335, 0.013147540390491486, -0.3010520935058594, -0.3006673753261566], [0.1150660291314125, 0.19729086756706238, -0.10761356353759766, -0.30543282628059387, -0.08543795347213745, 0.2490716129541397, 0.10152124613523483, -0.23145835101604462, -0.1180657371878624], [0.1633203625679016, -0.04999871924519539, -0.018010344356298447, -0.1029592975974083, -0.08176431059837341, -0.038282860070466995, 0.021548975259065628, -0.04171760007739067, 0.2124089151620865], [0.0007594511844217777, -0.05492011457681656, 0.11219827085733414, 0.07701396942138672, 0.0038537911605089903, -0.3288668394088745, 0.03131046146154404, 0.12074147909879684, 0.13061197102069855], [0.0218171626329422, 0.11429700255393982, 0.199298694729805, -0.17010602355003357, 0.007843829691410065, -0.18948307633399963, -0.05336204543709755, -0.12676191329956055, -0.1200314536690712], [0.1450241208076477, -0.015921443700790405, -0.04898260906338692, -0.07619700580835342, -0.02730632945895195, -0.002276147948578, 0.008212393149733543, 0.03621205314993858, 0.01103890873491764], [0.08935608714818954, -0.04814668372273445, -0.04331726208329201, 0.19440945982933044, -0.03780679032206535, -0.22816741466522217, 0.05313947796821594, -0.07811221480369568, 0.20627008378505707], [-0.15763333439826965, -0.057457488030195236, -7.027320680208504e-05, 0.09447286278009415, -0.1533341407775879, 0.3580349385738373, -0.0675542876124382, 0.2807357907295227, 0.21383866667747498], [0.0430726483464241, -0.004362752195447683, 0.10643941909074783, -0.08602096885442734, 0.16233843564987183, -0.23655197024345398, -0.1175149455666542, -0.12867529690265656, -0.1820312738418579], [-0.01758551597595215, 0.18304908275604248, -0.006306707393378019, -0.13853521645069122, -0.09162316471338272, 0.3393799662590027, -0.07046885043382645, -0.14600984752178192, -0.20692697167396545], [0.09686850756406784, -0.059337958693504333, 0.05787834897637367, 0.27808791399002075, -0.17718470096588135, 0.29920250177383423, -0.020608991384506226, -0.05213339254260063, 0.15939146280288696], [0.09542091190814972, -0.06970851868391037, 0.10898180305957794, 0.052209001034498215, 0.12795695662498474, -0.403646856546402, -0.07145474851131439, -0.09451054781675339, -0.03709202632308006], [-0.052542150020599365, 0.0223896112293005, -0.003110569668933749, 0.17678281664848328, -0.1665375977754593, 0.3091413378715515, -0.047829389572143555, 0.20282875001430511, 0.13456907868385315], [-0.08931198716163635, 0.018541129305958748, 0.07398548722267151, 0.0439319908618927, 0.0005259487079456449, 0.0041084592230618, -0.005559917539358139, -0.027079256251454353, 0.0036116011906415224], [0.07658875733613968, -0.007044379599392414, 0.04227190092206001, 0.05970965698361397, -0.1251486837863922, -0.008526389487087727, 0.024432027712464333, 0.034526754170656204, 0.051269106566905975], [-0.11201833933591843, -0.0503871776163578, -0.043597426265478134, -0.030984437093138695, 0.08894284814596176, -0.003280074568465352, 0.004415588453412056, 0.08042442053556442, -0.045625291764736176], [-0.06455641984939575, -0.17599491775035858, 0.0022112878505140543, 0.24067769944667816, -0.1674284189939499, -0.03231294825673103, 0.13445459306240082, 0.44508907198905945, 0.18017753958702087], [-0.044889431446790695, -0.03342635929584503, -0.06534875184297562, -0.020785657688975334, -0.00933334045112133, -0.002149828476831317, 0.00980963371694088, -0.12488697469234467, 0.19225487112998962], [-0.08711174130439758, -0.2282911241054535, 0.015341995283961296, 0.4019429683685303, -0.17820140719413757, 0.18087033927440643, 0.013780064880847931, 0.2399897277355194, 0.26760101318359375], [-0.0949549451470375, 0.028870724141597748, -0.02140837535262108, 0.02167590521275997, -0.13244163990020752, 0.38503414392471313, 0.03593899682164192, -0.039776332676410675, 0.056967731565237045], [0.08504615724086761, -0.13699211180210114, 0.011086279526352882, 0.15880410373210907, -0.02198207937180996, -0.37835249304771423, 0.05313529819250107, 0.12490846961736679, 0.2144448459148407], [-0.00648667523637414, -0.05310850962996483, 0.02278672717511654, -0.13758565485477448, -0.021569520235061646, 0.002520722569897771, 0.013609782792627811, 0.027614230290055275, 0.11611700057983398], [0.05676848813891411, -0.0073873260989785194, -0.08267536014318466, 0.004699937533587217, 0.011936751194298267, 0.012808708474040031, 0.003593506757169962, -0.025999004021286964, 0.033803440630435944], [-0.04041441157460213, -0.03345353528857231, -0.1073703020811081, -0.047815270721912384, 0.013524887152016163, 0.16396580636501312, 0.02622111327946186, 0.09909303486347198, 0.01985221542418003], [0.019301850348711014, -0.17756128311157227, -0.10245362669229507, 0.3306894302368164, -0.04170998930931091, -0.10729929059743881, -0.061039265245199203, 0.3889092803001404, 0.3316819965839386], [0.02142420783638954, -0.0924062728881836, 0.051675088703632355, 0.033666547387838364, 0.06354649364948273, -0.43387433886528015, 0.048394836485385895, 0.06463738530874252, 0.11451805382966995], [-0.0377916656434536, 0.06488648802042007, -0.1380334049463272, 0.11469557881355286, 0.05166226997971535, -0.388964980840683, 0.15591652691364288, 0.10135813802480698, 0.07733621448278427], [0.0684608668088913, 0.004416119772940874, 0.021117758005857468, 0.16293692588806152, -0.14364521205425262, -0.2727019786834717, 0.17214269936084747, 0.22589488327503204, 0.14930038154125214], [-0.04289006069302559, 0.11117550730705261, 0.07085198163986206, -0.0337204746901989, 0.037097152322530746, 0.05817453935742378, -0.08356323838233948, -0.18338710069656372, -0.14085236191749573], [0.05312413349747658, 0.03051481768488884, 0.08073873072862625, 0.06984525918960571, -0.045782409608364105, -0.026190362870693207, -0.004542156588286161, -0.007170103490352631, -0.04487581551074982], [-0.04944968596100807, -0.01146836206316948, -0.058648671954870224, 0.34243839979171753, -0.11443094909191132, -0.3721710443496704, 0.17366136610507965, 0.290504515171051, 0.12156961858272552], [-0.029181895777583122, 0.03216434642672539, -0.135875403881073, -0.1158180832862854, 0.04091808199882507, 0.3974835276603699, -0.03830783814191818, -0.15290719270706177, 0.07446599006652832], [-0.1004364863038063, -0.1215771734714508, -0.03332218527793884, -0.04962725564837456, -0.06072142347693443, 0.3787916898727417, -0.0011866705026477575, 0.199302539229393, 0.16545124351978302], [0.007538428995758295, -0.08855287730693817, 0.018587442114949226, 0.16764260828495026, 0.09209602326154709, -0.43359407782554626, 0.020535798743367195, 0.04485659673810005, -0.09699489921331406], [0.02887067198753357, 0.0020790263079106808, 0.034269899129867554, -0.06403281539678574, -0.08119722455739975, -7.303910024347715e-06, 0.006126740016043186, -0.03004196658730507, 0.07041342556476593], [0.07679829001426697, -0.02602800540626049, 0.13059495389461517, -0.1150168851017952, 0.050860289484262466, -0.40657883882522583, 0.08109264820814133, 0.06991191953420639, -0.08065006881952286], [-0.010597079992294312, -0.09098877012729645, 0.1079985573887825, -0.10770759731531143, 0.04120371490716934, -0.39089179039001465, 0.0575021430850029, 0.1387680470943451, 0.129544198513031], [-0.0225905179977417, -0.04149313271045685, -0.08366433531045914, -0.08940564095973969, -0.011128720827400684, -0.003050497267395258, 0.010452453047037125, 0.039524223655462265, 0.04544178023934364], [-0.010624715127050877, -0.21391244232654572, -0.017997443675994873, 0.2576206922531128, -0.09176110476255417, 0.2465258538722992, -0.06157880648970604, 0.17429211735725403, 0.03498033806681633], [-0.045713722705841064, -0.051918599754571915, -0.09613528102636337, 0.11143585294485092, -0.1414850801229477, 0.31432607769966125, 0.07383883744478226, 0.18056660890579224, 0.13595664501190186], [-0.028423290699720383, -0.2208336740732193, 0.05695546045899391, 0.16247998178005219, -0.11297224462032318, 0.12333367019891739, -0.018491875380277634, 0.10178635269403458, 0.18170489370822906], [0.28072890639305115, -0.1328640878200531, -0.046501047909259796, 0.012427007779479027, 0.07913711667060852, -0.3389222323894501, -0.0420471653342247, 0.1238938644528389, -0.08576036989688873], [-0.0003315356152597815, 0.01742347702383995, 0.009133074432611465, 0.07553660869598389, 0.0874488428235054, -0.4497908055782318, 0.0461016446352005, -0.012799813412129879, -0.006457500159740448], [-0.017700225114822388, 0.2308357208967209, -0.0012746714055538177, -0.076056569814682, -0.049839649349451065, 0.12041431665420532, -0.04238639399409294, -0.1895102560520172, -0.1688823252916336], [0.15502086281776428, -0.05949057266116142, -0.07978472113609314, -0.09590610861778259, 0.04384276270866394, -0.010028657503426075, 0.011150632984936237, 0.022951165214180946, 0.08963442593812943], [-0.05650734156370163, 0.025084570050239563, -0.11131691187620163, 0.133134663105011, 0.017322145402431488, 0.016559097915887833, -0.005892723798751831, -0.10588324069976807, 0.026457523927092552], [-0.14985601603984833, -0.11469325423240662, -0.0355188362300396, 0.014740461483597755, -0.002485420787706971, 0.14229357242584229, 0.03127306327223778, 0.11620598286390305, 0.11704538762569427], [-0.03069646842777729, 0.2405284345149994, 0.03407673165202141, -0.3090108633041382, -0.05658227205276489, 0.1055251806974411, 0.016490135341882706, -0.10038076341152191, -0.08248385787010193], [-0.10469018667936325, -0.032416120171546936, -0.005735707003623247, 0.04360197111964226, 0.08890325576066971, -0.0011474323691800237, 0.0002194235858041793, -0.05493651703000069, 0.064616858959198], [0.10336125642061234, -0.024109123274683952, -0.009500022977590561, -0.08576908707618713, 0.00130137475207448, -0.002184095559641719, 0.007317096460610628, 0.08128415793180466, -0.031122228130698204], [-0.03156593441963196, 0.10471371561288834, -0.07165966928005219, -0.13923729956150055, -0.0521838441491127, 0.42378830909729004, -0.03396042063832283, -0.1350051760673523, 0.06574765592813492], [-0.20516403019428253, 0.0826190710067749, 0.058383166790008545, 0.006087078247219324, -0.17617645859718323, 0.42594847083091736, 0.018579334020614624, -0.028929466381669044, 0.006733800284564495], [0.015274799428880215, -0.017217278480529785, 0.13741591572761536, -0.08531466871500015, -0.038789667189121246, 0.002912749769166112, 0.00851552002131939, -0.03775293007493019, 0.12091805040836334], [-0.032277707010507584, -0.09045156836509705, 0.025316745042800903, 0.27326709032058716, -0.01219876203685999, -0.3041788637638092, -0.0028090188279747963, 0.23840326070785522, 0.12545514106750488], [0.03846752643585205, 0.06647889316082001, 0.09875008463859558, -0.1772787868976593, 0.19630667567253113, -0.37531089782714844, -0.03998193144798279, -0.27631548047065735, -0.15094198286533356], [0.07369028031826019, 0.018788442015647888, -0.0578836165368557, 0.04886341094970703, -0.003654849948361516, -0.00471256859600544, -0.0047688777558505535, -0.0326429083943367, -0.005077879410237074], [0.02025945670902729, 0.0231130700558424, -0.10456939786672592, 0.12608429789543152, 0.0512271448969841, -7.413695857394487e-05, -0.00939613301306963, -0.05095233768224716, -0.0439491905272007], [-0.09110406041145325, 0.17093369364738464, -0.04712389409542084, -0.29972192645072937, 0.040209464728832245, 0.11735063046216965, 0.0481143593788147, -0.06758107990026474, 0.02151918038725853], [-0.0585005059838295, -0.17837047576904297, -0.04961663484573364, 0.17130817472934723, 0.09920593351125717, -0.3494490683078766, 0.019221223890781403, 0.2279520034790039, 0.1535724401473999], [0.014380792155861855, 0.0008873105980455875, 0.0012012036750093102, -0.21020865440368652, 0.038723208010196686, 0.24810895323753357, 0.10322556644678116, -0.3375023305416107, -0.21137192845344543], [0.02051357366144657, -0.0031421908643096685, 0.08278181403875351, 0.012286468409001827, 0.024066999554634094, -0.13569508492946625, -0.01717769168317318, -0.009763449430465698, -0.044282183051109314], [0.024865606799721718, -0.16490833461284637, -0.07331446558237076, 0.2701840400695801, -0.16400130093097687, 0.02869992144405842, -0.008738505654036999, 0.4356021285057068, 0.3289474546909332], [-0.0863371416926384, 0.11398184299468994, -0.15642760694026947, -0.2769401967525482, -0.06427746266126633, 0.45157095789909363, 0.0756751075387001, -0.004772234708070755, -0.03080885484814644], [0.11266359686851501, 0.11755023151636124, 0.073121078312397, -0.1345192939043045, 0.07913371175527573, -0.19490525126457214, 0.009675241075456142, -0.33538487553596497, -0.25235846638679504], [-0.015887411311268806, 0.04716794937849045, 0.04406112805008888, 0.07816562056541443, -0.023732786998152733, -0.010048454627394676, -0.011416994035243988, -0.025283241644501686, -0.06718999892473221], [0.04441192373633385, -0.07751262933015823, 0.0253429114818573, 0.044957201927900314, 0.12225518375635147, -0.33876490592956543, -0.023875802755355835, -0.0578344389796257, -0.020175935700535774], [-0.03495248034596443, -0.16322362422943115, -0.17218203842639923, 0.020444441586732864, -3.52301613020245e-05, 0.24456582963466644, 0.050508156418800354, 0.11574073135852814, 0.3204781711101532], [0.11222811043262482, 0.0446915477514267, 0.08038801699876785, -0.18574534356594086, 0.1434859335422516, -0.12013121694326401, -0.13051269948482513, -0.24687127768993378, -0.2701239287853241], [0.103350929915905, 0.12695354223251343, 0.02346769906580448, -0.24041776359081268, 0.0699552372097969, 0.06950804591178894, -0.11911305040121078, -0.30845579504966736, -0.27784264087677], [-0.17942340672016144, -0.05902985483407974, 0.031611550599336624, 0.3154419958591461, 0.011379998177289963, -0.18305301666259766, 0.05637030676007271, 0.12805142998695374, -0.03759600222110748], [-0.12503984570503235, 0.06446831673383713, 0.011072780005633831, -0.04305097088217735, -0.005335209425538778, 0.4545188844203949, -0.13642311096191406, -0.10127756744623184, -0.19723886251449585], [0.0222178902477026, -0.06787688285112381, 0.13480877876281738, 0.01367009337991476, 0.08637551963329315, -0.392314076423645, -0.013541441410779953, -0.055929768830537796, 0.0722087174654007], [0.0767730176448822, -0.005001548212021589, 0.14891162514686584, -0.19745320081710815, 0.1459040492773056, -0.28032615780830383, -0.062364786863327026, -0.221006378531456, -0.17207342386245728], [-0.06380978971719742, 0.031383734196424484, -0.018847767263650894, -0.07597052305936813, -0.14179587364196777, 0.38835519552230835, 0.02763824351131916, 0.1269177794456482, 0.10981813073158264], [-0.22037376463413239, 0.1836513727903366, -0.10960657149553299, -0.16452184319496155, -0.09494716674089432, 0.24489931762218475, 0.15827691555023193, 0.055432677268981934, 0.15227505564689636], [-0.020927101373672485, 0.02483108453452587, 0.07315345853567123, -0.016396889463067055, -0.017357535660266876, 0.012833445332944393, -0.004025721922516823, 0.12474924325942993, -0.14525717496871948], [-0.02211989462375641, 0.0166536383330822, -0.03801786154508591, -0.01763809099793434, -0.13794639706611633, 0.3680427670478821, 0.03160566836595535, 0.07186621427536011, 0.10113953053951263], [0.05233125761151314, 0.04263297840952873, 0.057139717042446136, -0.2607944905757904, 0.044518496841192245, 0.00284884893335402, -0.04618392884731293, -0.040979091078042984, -0.06271979212760925], [0.15777593851089478, 0.0576985701918602, 0.11763804405927658, -0.02525772713124752, 0.022962026298046112, -0.3936156630516052, -0.05140552297234535, -0.09232970327138901, -0.1420050859451294], [0.11401113122701645, -0.013039549812674522, 0.10514404624700546, -0.17133446037769318, 0.18967097997665405, -0.3199978172779083, -0.07433681935071945, -0.2545095980167389, -0.1438455581665039], [0.08009951561689377, -0.052085988223552704, -0.07871616631746292, 0.027620211243629456, 0.07318765670061111, -0.06117439270019531, 0.005412938538938761, -0.035801395773887634, 0.07969999313354492], [0.04922354593873024, 0.10498674213886261, 0.13384981453418732, -0.23281973600387573, 0.16293840110301971, -0.19108274579048157, -0.03935321792960167, -0.32832658290863037, -0.3254304826259613], [-0.006159884389489889, -0.05205164849758148, -0.041925664991140366, 0.10965735465288162, -0.020265351980924606, -0.06407363712787628, 0.04793788120150566, 0.051450468599796295, 0.09384439140558243], [-0.0265509020537138, -0.1883121281862259, -0.17614421248435974, 0.2446170300245285, -0.05933787673711777, -0.004315764177590609, 0.09090453386306763, 0.4436020255088806, 0.22996722161769867], [0.17474134266376495, -0.10776332765817642, 0.02398510091006756, 0.1379053294658661, 0.009901241399347782, -0.32983341813087463, -0.018761727958917618, 0.08614741265773773, -0.05111519247293472], [-0.044005054980516434, 0.09887860715389252, -0.06755446642637253, 0.042946331202983856, -0.056763358414173126, 0.2715139091014862, -0.040578506886959076, -0.12944811582565308, -0.05240783095359802], [-0.07028844952583313, -0.010324914008378983, 0.06372559815645218, -0.06174502149224281, -0.09401357173919678, 0.13391318917274475, 0.018127495422959328, 0.06751111149787903, 0.04380199685692787]], "mlp_extractor.policy_net.0.bias": [-0.06062689423561096, 0.016342151910066605, -0.007886483334004879, -0.014598858542740345, 0.07767119258642197, -0.03732738643884659, 0.019426943734288216, -0.0033241708297282457, 0.06274092197418213, 0.03711707144975662, -0.005518876016139984, 0.07951565831899643, -0.03374342992901802, -0.008849960751831532, 0.05615923926234245, 0.0007263327133841813, 0.04340095445513725, -0.042480986565351486, -0.03641228750348091, -0.006296129431575537, 0.06220705062150955, -0.03074764646589756, 0.047262441366910934, 0.05917803570628166, -0.008585095405578613, -0.034419652074575424, -0.04775891453027725, 0.0018653000006452203, 0.07461629807949066, -0.04596514254808426, -0.07694236189126968, 0.008410436101257801, 0.027728401124477386, 0.03330627456307411, -0.0068970066495239735, -0.041858769953250885, 0.052134815603494644, 0.040394376963377, 0.03290413320064545, -0.01722562126815319, -0.0775674507021904, -0.06034576892852783, -0.09973784536123276, 0.030922546982765198, 0.0435924306511879, 0.0020275393035262823, -0.012766077183187008, -0.01851993426680565, 0.03366400673985481, -0.059508420526981354, -0.0031017237342894077, -0.06627601385116577, 0.020153580233454704, -0.022561872377991676, 0.026745885610580444, 0.060463424772024155, -0.0442475751042366, -0.02042737603187561, -0.05189874395728111, -0.024087948724627495, -0.046656396239995956, -0.04209490492939949, 0.0032975408248603344, 0.019766170531511307, 0.020922625437378883, 0.010709719732403755, -0.019841233268380165, -0.01133880764245987, 0.035393960773944855, -0.06403456628322601, -0.03818193078041077, -0.04344797879457474, -0.02753574773669243, -0.01618153229355812, 0.03315823897719383, 0.011423028074204922, -0.016533134505152702, -0.014938443899154663, -0.025762388482689857, -0.01554595585912466, -0.011446614749729633, -0.0377180315554142, -0.08602447062730789, -0.01753988489508629, 0.035045526921749115, -0.022050313651561737, 0.004889420233666897, -0.01629886031150818, 0.039421893656253815, -0.05445106327533722, -0.029190223664045334, 0.011275133118033409, -0.015071369707584381, -0.021745529025793076, -0.03276539593935013, 0.04201534762978554, -0.008345037698745728, -0.018862241879105568, -0.048999737948179245, 0.04255114868283272, -0.06316640228033066, 0.004512105602771044, 0.025465691462159157, -0.038888975977897644, -0.001980323577299714, -0.011768566444516182, 0.02502361685037613, -0.024517478421330452, 0.01795913092792034, 0.04010874405503273, -0.03602016717195511, -0.056950412690639496, -0.008449297398328781, -0.007584789302200079, 0.03168836608529091, -0.06838715076446533, 0.0015355161158367991, -0.09418819099664688, -0.032480232417583466, 0.041379597038030624, -0.07236190885305405, -0.0812508761882782, 0.05340777337551117, 0.0001313649263465777, -0.07029236108064651, 0.019348734989762306, 0.007917341776192188, -0.0616300068795681, 0.0204799622297287, 0.01777409017086029, 0.0032210589852184057, -0.016947081312537193, 0.055309638381004333, -0.031953245401382446, -0.015947049483656883, -0.006111084949225187, -0.07756111770868301, -0.059171851724386215, -0.010369779542088509, 0.021039167419075966, -0.06289339810609818, 0.08717182278633118, 0.10368118435144424, 0.06812530755996704, -0.007755345199257135, -0.013238792307674885, 0.060054656118154526, 0.041178978979587555, -0.06359019130468369, 0.0945337787270546, -0.016188593581318855, -0.056306324899196625, 0.00735479174181819, 0.025290733203291893, -0.06610837578773499, -0.10334667563438416, 0.019288862124085426, 0.016572725027799606, 0.038932546973228455, -0.0535879023373127, 0.08462914079427719, -0.08237814158201218, 0.020878326147794724, 0.023914454504847527, -0.027652323246002197, 0.0168767087161541, -0.025960292667150497, -0.06084353104233742, -0.046046674251556396, -0.018131697550415993, 0.010824485681951046, 0.003200726117938757, -0.03706902265548706, -0.04738153889775276, -0.020041124895215034, -0.04586370661854744, 0.039690908044576645, -0.062212441116571426, 0.030521588400006294, 0.07267458736896515, 0.04850830137729645, 0.054241955280303955, -0.0060714781284332275, 0.01747300662100315, -0.014653269201517105, 0.037569448351860046, 0.027602868154644966, -0.026680465787649155, -0.05269286036491394, 0.02837526984512806, -0.013558128848671913, 0.01655469834804535, 0.014637764543294907, 0.05589736998081207, -0.03803146257996559, 0.0019262221176177263, -0.06325430423021317, -0.012517484836280346, 0.04711008444428444, -0.014402670785784721, -0.014853368513286114, 0.022355560213327408, 0.0036604779306799173, 0.06673756241798401, 0.0002532422950025648, 0.01681550219655037, -0.01801775023341179, -0.06296618282794952, -0.009479383006691933, -0.06534972786903381, -0.06501069664955139, -0.02030819281935692, -0.008659645915031433, 0.005750393960624933, 0.006687336601316929, 0.039881303906440735, -0.02748492732644081, 0.018337028101086617, 0.08285228163003922, -0.04594486579298973, -0.07317822426557541, -0.03705962374806404, -0.011140462942421436, -0.0017373067094013095, 0.01860545389354229, 0.02686820924282074, 0.0664975643157959, -0.061635199934244156, 0.06827008724212646, 0.022496597841382027, -0.0038870603311806917, -0.04659051448106766, 0.06931833922863007, 0.02639714628458023, -0.018811378628015518, 0.04074660688638687, 0.018639860674738884, -0.03741099312901497, 0.06403911113739014, -0.008328551426529884, -0.026679284870624542, -0.0030126168858259916, -0.03515210375189781, -0.016291692852973938, 0.05104479938745499, 0.0563187375664711, 0.06549679487943649, -0.02536182850599289, 0.00649650301784277, -0.03640520200133324, -0.06080373376607895, 0.030092423781752586, 0.02577328495681286, -0.045157480984926224, -0.0729828029870987, -0.02223067730665207, 0.00606534956023097, 0.025154199451208115, -0.061310797929763794, 0.0058061969466507435, 0.0475715696811676, -0.040725141763687134, 0.05914391949772835, 0.031087543815374374, 0.005835408344864845, 0.04689887538552284, 0.013617812655866146, 0.04631219431757927, 0.005607367027550936, 0.03429383039474487, -0.03479449078440666, 0.03946297988295555, 0.027607491239905357, -0.08207333087921143, 0.04581049829721451, -0.06193903461098671, -0.010078392922878265, 0.027610424906015396, -0.008741118013858795, -0.01309277955442667, 0.05698510259389877, -0.03173865005373955, -0.03948014974594116, 0.05116565153002739, 0.032152194529771805, 0.000966162420809269, -0.027690527960658073, -0.05224813520908356, 0.04673515260219574, 0.00816425122320652, -0.010426272638142109, 0.0001947548589669168, -0.02444108948111534, 0.023740321397781372, -0.0687960535287857, -0.06677408516407013, 0.06371694058179855, 0.04777171462774277, 0.01712927781045437, 0.05265175178647041, 0.0778212770819664, 0.0054558878764510155, -0.05497313290834427, 0.03807797282934189, 0.060770828276872635, 0.050704531371593475, 0.02575685828924179, -0.031783949583768845, 0.03057580254971981, -0.009702903218567371, 0.011355121619999409, -0.04475611820816994, -0.02167709544301033, -0.0405951626598835, -0.013182807713747025, -0.03430541977286339, 0.01964089646935463, 0.07133350521326065, 0.0036748514976352453, -0.018436629325151443, -0.04298290237784386, 0.01802864857017994, 0.004528326913714409, 0.0043919505551457405, -0.033120445907115936, -0.019983522593975067, 0.05182378739118576, -0.0027360112871974707, 0.04953600838780403, -0.06026527285575867, 0.051740385591983795, 0.060933902859687805, 0.0013002308551222086, -0.011122898198664188, 0.03687282279133797, 0.06479628384113312, -0.0554463267326355, -0.05173478275537491, -0.011567870154976845, -0.05572391673922539, 0.011013632640242577, 0.09280245751142502, 0.0538308210670948, -0.03149925172328949, 0.050266705453395844, 0.0030335611663758755, -0.04203532263636589, 0.06895788758993149, -0.003034422639757395, 0.012479125522077084], "action_net.weight": [[-0.021409736946225166, -0.08847931772470474, 0.0006081859464757144, 0.0002773767046164721, 0.15360961854457855, -0.10167116671800613, 6.934398697922006e-05, 0.0005530912312678993, 0.00045675362343899906, 0.024587241932749748, -0.229961097240448, 0.13645699620246887, -0.2057446837425232, 9.933373803505674e-05, -9.847755427472293e-05, 0.0002657803415786475, -0.0014915232313796878, -0.05566250905394554, -0.10774724930524826, 0.00015138137678150088, 0.21155452728271484, -0.0014307680539786816, 0.023928895592689514, 0.08985426276922226, 4.9175007006851956e-05, 0.00031890402897261083, -0.09183821082115173, 0.004805183969438076, 0.5270609259605408, -0.05854612588882446, -0.1090957522392273, 0.072848379611969, 0.0016575517365708947, 0.000987829058431089, 0.0009300521924160421, 0.0024364464916288853, 0.10329854488372803, 0.14592808485031128, -0.00021326376008801162, 0.0003105834184680134, -0.05334118753671646, -0.3310975134372711, -0.1709347665309906, 0.1630857139825821, 0.0013240532716736197, 0.0001881842181319371, -0.0005496878875419497, 0.00017663832113612443, 0.00028043502243235707, -0.1146773248910904, 0.04946383461356163, -0.06977318227291107, 2.8239057428436354e-05, -0.0009489149088039994, 0.0005079535767436028, -0.0017532013589516282, -0.018933923915028572, -0.0002573888632468879, -0.005241652484983206, -0.05154832825064659, 3.795736483880319e-05, -0.34814801812171936, 0.14497877657413483, -0.07948438078165054, 0.003690765704959631, -0.0017723396886140108, -0.008526274934411049, 0.019983304664492607, 0.0756857767701149, -0.0916055217385292, -0.03584297373890877, -0.1920262724161148, -0.03586231544613838, -0.08393608778715134, -7.511174771934748e-05, -0.0016218735836446285, -0.0008503606077283621, 0.00012127416994189844, -0.0011929949978366494, 0.00017260739696212113, -0.00022545820684172213, -5.145081377122551e-05, -0.09179049730300903, 0.0028733660001307726, 0.02562527544796467, -0.08258936554193497, -0.01017757598310709, -0.003931925632059574, 0.0005332343280315399, -0.19976842403411865, 0.03978096693754196, 0.00019155003246851265, -0.13901817798614502, -0.06616991013288498, -0.11462721228599548, 0.005819702986627817, -0.03634895756840706, -0.0008798749768175185, 0.0027981617022305727, 0.0012932992540299892, -0.1128740981221199, -0.000652100658044219, 0.3141431510448456, -0.044395096600055695, -0.00011070815526181832, -0.0001810031826607883, 0.0007900454802438617, -0.0010059416526928544, -0.0013229827163740993, 0.008293732069432735, 0.0026029010768979788, 0.0012304021511226892, -0.2596539556980133, -0.05172164738178253, 0.0007752299425192177, -0.3281356692314148, 0.049835026264190674, -0.1940484195947647, 0.0002260788605781272, 0.08067101240158081, -0.067387156188488, -0.09627503901720047, 0.33319833874702454, -9.694718028185889e-05, -0.01040240190923214, 0.03366395831108093, -0.00029174075461924076, -0.06751420348882675, 0.2958296835422516, -0.000884022272657603, 0.0071528456173837185, -0.003689599223434925, 0.3971228301525116, 2.5978606572607532e-05, 5.317402974469587e-05, -0.0030955804977566004, -0.13485389947891235, 0.0023087887093424797, 0.011564726941287518, 0.169962540268898, -0.26471224427223206, 0.15092307329177856, 0.03742547705769539, 0.23122145235538483, -0.0023472467437386513, 0.0005274816649034619, -0.00027747807325795293, -0.00012713251635432243, -0.5853325128555298, 0.034670304507017136, -0.0021253288723528385, -0.31978490948677063, -0.0008220878662541509, 8.52983066579327e-05, -0.05424514412879944, -0.11178634315729141, -0.002390965586528182, -0.00016264327859971672, 0.019201166927814484, -0.09116897732019424, 0.13799959421157837, -0.05903409421443939, 0.041139550507068634, 0.006898726802319288, -0.15308621525764465, 0.00036143462057225406, 7.35585781512782e-05, -0.04927831515669823, -0.31092989444732666, -0.38084831833839417, -0.0011499895481392741, -0.22799786925315857, -0.08746249228715897, -0.35973072052001953, -0.07430291920900345, 0.0130225270986557, 0.3431784212589264, -0.23589222133159637, 0.0001850178377935663, 0.08279769867658615, 0.37874364852905273, 0.46215370297431946, -0.12230652570724487, 0.001776177785359323, -0.00012480924488045275, 0.0020112721249461174, -0.0003965401847381145, -0.23485377430915833, 0.001613143365830183, 0.0024975731503218412, 0.004094637464731932, -0.0029099087696522474, 0.0003309134335722774, 0.09369228035211563, 0.00016304687596857548, 0.008770647458732128, -0.00013455585576593876, -0.019601136445999146, 0.0001509093417553231, -0.11887548863887787, -0.0021240334026515484, 9.788321767700836e-05, -2.9509441446862184e-05, 0.1804913580417633, -0.0016647090669721365, -0.10660015791654587, -0.26209738850593567, -0.000604259199462831, -0.004138001706451178, -0.03714205324649811, -0.0006829203339293599, -0.2070498764514923, 0.0026592472568154335, -2.4419137844233774e-05, 0.002466117963194847, 0.0005863123806193471, -0.3296867311000824, -7.834284588170704e-06, 0.21654486656188965, -0.34278225898742676, -0.17754513025283813, -0.10680960863828659, -0.061406686902046204, 0.04842027276754379, 0.18144990503787994, -0.019746344536542892, -0.00046546029625460505, 0.00018459140846971422, 0.07207488268613815, 0.037979111075401306, 0.0009772854391485453, -0.18888740241527557, 0.3618486821651459, 0.007527257781475782, 0.025004379451274872, -0.01127941720187664, 0.19747795164585114, 0.00015040815924294293, 0.06176081672310829, -0.22879354655742645, 0.00355769251473248, 0.0003564079524949193, -0.14769209921360016, -0.00017724806093610823, 0.5115883946418762, 0.06007450819015503, 0.0021519633010029793, -0.000434606074122712, 0.06812452524900436, -0.054941147565841675, -0.001682228408753872, 0.04407685250043869, 0.0002950637135654688, -0.01626257412135601, -0.023657944053411484, -0.0020045337732881308, 0.030109349638223648, -0.0005214508273638785, -0.10569768399000168, -0.11122702807188034, 0.1071082055568695, 0.027220163494348526, 0.054626792669296265, -0.021472791209816933, -0.0327502116560936, -0.0020899432711303234, 0.027795501053333282, 0.0009203751105815172, -0.0005209174123592675, 0.0009395386441610754, -0.12901385128498077, 0.007908007130026817, -0.024343064054846764, -0.06454519927501678, 0.33669933676719666, -0.11288034915924072, 7.198370440164581e-05, 0.00054339156486094, 4.4286323827691376e-05, -0.0231370497494936, -0.0007089180289767683, -0.14570918679237366, -0.07735651731491089, 0.09768787771463394, -0.00255201174877584, 7.111678860383108e-05, -0.00036296373582445085, 0.01059082243591547, 0.33808839321136475, 0.04665028676390648, 0.0016508440021425486, -0.0003026473568752408, 0.0009460888104513288, 0.0755138248205185, -0.06239478290081024, -0.32598498463630676, 0.24806424975395203, -9.58066011662595e-05, 0.07715419679880142, 0.06204921752214432, -0.0011903401464223862, -0.07634429633617401, -0.12098848819732666, -0.002272946061566472, 0.07217630743980408, 0.40648648142814636, -0.0011650881497189403, -0.0021385829895734787, 0.001110487268306315, -0.00039123589522205293, -0.00027478585252538323, 0.00029501516837626696, -0.00035763331106863916, -0.28096985816955566, -0.1665007323026657, -0.0006486375932581723, 0.05727909505367279, 0.41774147748947144, -0.00012829470506403595, 0.0011104537406936288, -0.00022161220840644091, 0.20181268453598022, -0.037137310951948166, 0.00018971604004036635, -0.034444503486156464, -0.35800251364707947, 0.0721113383769989, 0.0009057209827005863, 0.0402211956679821, -0.04073191434144974, 0.03400127589702606, 0.008050997741520405, 0.0016871948027983308, -0.1987188458442688, 0.233927384018898, 0.16382627189159393, -0.33395031094551086, -0.014251203276216984, 0.00011305921361781657, -0.31913089752197266, -0.0010691274655982852, 0.09376917779445648, 0.20415684580802917, -0.00019002151384484023, 0.09971506148576736, 0.0007822184707038105, -0.03413074463605881, 0.021486658602952957, -0.0021826797164976597, -0.0002967377076856792], [0.005010788328945637, 0.1888192594051361, 0.0011409525759518147, 0.004099308513104916, 0.05372261628508568, -0.12212058156728745, 0.07876699417829514, -0.004524047486484051, -0.001676439307630062, 0.034177832305431366, 0.1927635371685028, 0.0738295391201973, -0.07573183625936508, 0.0021665599197149277, -0.0029806613456457853, -0.0028734852094203234, -0.001214230782352388, -0.13564468920230865, 0.0436677560210228, -0.0032868380658328533, 0.2579045593738556, 0.001959810731932521, 0.006336322985589504, 0.04416823759675026, 0.0001590698229847476, 0.002779820468276739, 0.028651250526309013, 0.009575062431395054, 0.07867181301116943, -0.019145987927913666, -0.2563006579875946, 0.0445217601954937, 0.0004199179238639772, -0.0007769734947942197, -0.0011321280617266893, 0.007343113888055086, 0.022914132103323936, 0.17753605544567108, -6.3955711084418e-05, -0.0020431072916835546, -0.01901293732225895, 0.205152690410614, -0.11451686918735504, -0.024387817829847336, 0.0008335793390870094, -0.0033477493561804295, -0.10492617636919022, 0.0019611965399235487, 0.0013089042622596025, 0.06760602444410324, 0.098561130464077, 0.04256324842572212, 0.00039343262324109674, -0.0006145592778921127, -0.0019288032781332731, 0.0005306918756105006, -0.22886858880519867, -0.0005608798237517476, -0.0030528269708156586, -0.0878388062119484, -0.0007707705954089761, 0.22631213068962097, -0.19393229484558105, 0.12192508578300476, 0.012433692812919617, -0.0008687349036335945, 0.01747717335820198, -0.12441115081310272, -0.0411360003054142, -0.06810633838176727, 0.06801476329565048, 0.1109744980931282, -0.011847421526908875, -0.026194702833890915, -0.0010222438722848892, 0.015573283657431602, 0.0035942955873906612, 0.0009339905809611082, -0.0008129637571983039, 0.0025678768288344145, -0.0002359995705774054, 0.003222524654120207, -0.0951041504740715, 0.002545042661949992, 0.019679853692650795, -0.08447294682264328, -0.04709708318114281, -0.009453901089727879, 0.0005431359750218689, 0.13017745316028595, -0.09018753468990326, -0.0018182070925831795, 0.17886124551296234, 0.025358445942401886, 0.057010993361473083, 0.14278990030288696, -0.1177554577589035, -0.0004211427876725793, 0.010362851433455944, -0.0013913217699155211, 0.08694609254598618, 0.0006659763166680932, -0.019725419580936432, -0.0858154371380806, -0.0016454566502943635, -0.0018716516206040978, -0.0012283874675631523, 0.0027969705406576395, 0.0026301825419068336, 0.14956237375736237, 0.0033731861039996147, -0.0030726189725100994, -0.007258063647896051, 0.09657514095306396, -0.0011164199095219374, -0.16891461610794067, -0.13633397221565247, -0.04478771239519119, 0.00233183684758842, -0.032201532274484634, -0.206080362200737, -0.0880737155675888, -0.11577781289815903, -0.0005923738935962319, -0.019558550789952278, 0.1772255003452301, 0.0009346493170596659, -0.19641071557998657, -0.059992026537656784, 5.529349800781347e-05, 0.031007640063762665, -0.006901153363287449, 0.13540679216384888, -1.9473876818665303e-05, -0.0001646841992624104, -0.020020363852381706, -0.08448485285043716, 0.0016950414283201098, -0.04753805696964264, -0.1877341866493225, -0.10975388437509537, 0.1225309893488884, 0.014803918078541756, 0.05656077712774277, -0.0015477125998586416, 0.003588806139305234, -0.0021083704195916653, 0.0014088143361732364, -0.1158868819475174, -0.02113146148622036, -0.0004330769006628543, -0.11423754692077637, 0.0006530467071570456, 0.0029285151977092028, -0.15990538895130157, -0.07257039844989777, -0.0011573099764063954, 0.0011642316821962595, 0.012849210761487484, -0.13054293394088745, 0.11323245614767075, -0.05205772444605827, 0.06871305406093597, -0.0044027226977050304, 0.15392741560935974, 0.006112974137067795, 0.002333268988877535, -0.1892353892326355, -0.006883631926029921, 0.1449032872915268, 0.0003305758291389793, 0.23405973613262177, -0.056457649916410446, 0.041208114475011826, 0.08393368124961853, -0.26125916838645935, 0.25473102927207947, -0.08387183398008347, -0.002700463170185685, 0.15606510639190674, 0.09391652047634125, -0.03152994439005852, -0.21892884373664856, 0.0017507262527942657, -0.004193694330751896, 0.0014480965910479426, 0.0009846175089478493, 0.21021190285682678, 0.0006694221519865096, 0.000685573264490813, 0.012075850740075111, 0.00674184737727046, 3.998168540420011e-05, 0.1577640026807785, 0.00017355737509205937, 0.05667923018336296, 0.0026273936964571476, 0.2626960873603821, -0.0036081341095268726, 0.11859804391860962, -0.021819105371832848, 0.0014865093398839235, -0.0002939238038379699, 0.2138541340827942, 0.0017579542472958565, 0.283087819814682, 0.04748424142599106, -0.0007982017705217004, -0.01123935915529728, -0.03992640972137451, 8.789294952293858e-05, -0.270707368850708, 0.004858008120208979, -0.0026393055450171232, 0.0011774778831750154, 0.00010344629117753357, -0.0694127008318901, 0.00037249975139275193, 0.20226208865642548, -0.12292074412107468, -0.1628994643688202, -0.08072824776172638, 0.08622559905052185, -0.0015730623854324222, -0.16902361810207367, 0.22925712168216705, -0.0002588538045529276, 0.0019767971243709326, 0.19963935017585754, -0.008717961609363556, 0.0003290806198492646, 0.10902073234319687, 0.04436882957816124, -0.0027687742840498686, 0.14055724442005157, 0.1315244883298874, -0.13246050477027893, -0.003520373022183776, 0.02501809410750866, 0.23240415751934052, -0.004260757472366095, -0.0034291469492018223, -0.020494883880019188, 0.003582201199606061, -0.20644713938236237, 0.12148799747228622, 0.16852106153964996, -0.002812749007716775, -0.035382870584726334, -0.010476789437234402, 0.0017635951517149806, 0.02157401293516159, 0.0019511304562911391, -0.1285378485918045, -0.007507939822971821, -0.00029310391983017325, -0.09756996482610703, -0.0032612821087241173, -0.13810965418815613, 0.07947701960802078, -0.18150712549686432, -0.24116182327270508, 0.1873290240764618, 0.1385904997587204, 0.09274338185787201, -0.004599293228238821, -0.03017962910234928, 0.0011133981170132756, 0.0037663131952285767, -0.0015545254573225975, -0.14948329329490662, 0.008514202199876308, 0.03241720050573349, -0.02992505021393299, 0.020096613094210625, -0.1247820034623146, -0.003635014872997999, 0.00020739917817991227, 0.0029891144949942827, -0.09877463430166245, 0.003191933501511812, -0.280281662940979, 0.009698644280433655, -0.12122979760169983, -0.0005906813312321901, 0.0002590093354228884, 4.474836168810725e-05, -0.1933869570493698, -0.11860550940036774, -0.02916763909161091, -0.008032266050577164, 0.0026195852551609278, 0.000380685378331691, -0.1380201280117035, 0.0241109486669302, -0.18320730328559875, -0.02428138069808483, 0.0026313827838748693, 0.014637384563684464, -0.040175534784793854, 0.0031544396188110113, -0.0750603899359703, -0.08120596408843994, -0.010041097179055214, -0.020392348989844322, -0.01107108499854803, 0.00792942475527525, 0.0008031923207454383, -0.002163144527003169, -0.0007428452954627573, 0.0027318981010466814, 0.0001285731850657612, 0.003631733125075698, 0.09227680414915085, 0.02591744437813759, 0.002045266330242157, -0.11443484574556351, 0.3819476068019867, -0.001618167501874268, -0.0023343644570559263, 0.0010998978978022933, -0.22149214148521423, 0.11575985699892044, -8.446391439065337e-05, -0.20251698791980743, 0.19342643022537231, 0.14153560996055603, -0.002171911997720599, 0.00515352189540863, -0.06514950841665268, 0.06465594470500946, 0.06182221323251724, -0.00011527775495778769, 0.10780683904886246, -0.027083994820713997, 0.1745263636112213, -0.10613670945167542, -0.006064406130462885, -0.00398671580478549, -0.0821240171790123, -0.0003554156282916665, 0.03575535863637924, 0.19081087410449982, 0.0018680201610550284, 0.20926488935947418, -0.0003779561666306108, -0.17551536858081818, -0.004720767494291067, 0.005421112757176161, -4.5179116568760946e-05]], "action_net.bias": [0.033453766256570816, 0.09306192398071289]}